{"learner":{"attributes":{"best_iteration":"54","best_score":"0.24268373926824827"},"feature_names":["ElderlyScore","PregnantOrInfantScore","PhysicalPWDScore","PsychPWDScore","SensoryPWDScore","MedicallyDependentScore","locationRiskLevel"],"feature_types":["int","int","int","int","int","int","int"],"gradient_booster":{"model":{"gbtree_model_param":{"num_parallel_tree":"1","num_trees":"85"},"iteration_indptr":[0,1,2,3,4,5,6,7,8,9,10,11,12,13,14,15,16,17,18,19,20,21,22,23,24,25,26,27,28,29,30,31,32,33,34,35,36,37,38,39,40,41,42,43,44,45,46,47,48,49,50,51,52,53,54,55,56,57,58,59,60,61,62,63,64,65,66,67,68,69,70,71,72,73,74,75,76,77,78,79,80,81,82,83,84,85],"tree_info":[0,0,0,0,0,0,0,0,0,0,0,0,0,0,0,0,0,0,0,0,0,0,0,0,0,0,0,0,0,0,0,0,0,0,0,0,0,0,0,0,0,0,0,0,0,0,0,0,0,0,0,0,0,0,0,0,0,0,0,0,0,0,0,0,0,0,0,0,0,0,0,0,0,0,0,0,0,0,0,0,0,0,0,0,0],"trees":[{"base_weights":[-3.8129847E-2,-6.012425E-1,1.2112299E0,-9.9337834E-1,-6.327119E-2,4.934005E-2,1.3273345E-1,-1.06120825E-1,-3.4805655E-2,-2.6668066E-2,4.0452264E-2],"categories":[],"categories_nodes":[],"categories_segments":[],"categories_sizes":[],"default_left":[0,0,0,0,0,0,0,0,0,0,0],"id":0,"left_children":[1,3,5,7,9,-1,-1,-1,-1,-1,-1],"loss_changes":[8.2014885E1,1.6472544E1,1.4423904E0,9.47361E-1,3.4366798E0,0E0,0E0,0E0,0E0,0E0,0E0],"parents":[2147483647,0,0,1,1,2,2,3,3,4,4],"right_children":[2,4,6,8,10,-1,-1,-1,-1,-1,-1],"split_conditions":[2E0,1E0,1E0,3E0,2E0,4.934005E-2,1.3273345E-1,-1.06120825E-1,-3.4805655E-2,-2.6668066E-2,4.0452264E-2],"split_indices":[4,2,3,0,3,0,0,0,0,0,0],"split_type":[0,0,0,0,0,0,0,0,0,0,0],"sum_hessian":[1.1497459E2,7.988686E1,3.508772E1,4.517913E1,3.4707733E1,6.215539E0,2.887218E1,3.9597736E1,5.5813956E0,2.5234047E1,9.473684E0],"tree_param":{"num_deleted":"0","num_feature":"7","num_nodes":"11","size_leaf_vector":"1"}},{"base_weights":[7.570325E-2,-6.070318E-1,1.0510204E0,-1.0395322E0,-0E0,3.3719733E-2,1.1259923E-1,-1.1217222E-1,-2.9841721E-2,-5.735926E-3,1.3679221E-2],"categories":[],"categories_nodes":[],"categories_segments":[],"categories_sizes":[],"default_left":[0,0,0,0,0,0,0,0,0,0,0],"id":1,"left_children":[1,3,5,7,9,-1,-1,-1,-1,-1,-1],"loss_changes":[7.127026E1,1.6807936E1,1.2545891E0,1.2014427E0,2.4684924E-1,0E0,0E0,0E0,0E0,0E0,0E0],"parents":[2147483647,0,0,1,1,2,2,3,3,4,4],"right_children":[2,4,6,8,10,-1,-1,-1,-1,-1,-1],"split_conditions":[3E0,2E0,1E0,3E0,1E0,3.3719733E-2,1.1259923E-1,-1.1217222E-1,-2.9841721E-2,-5.735926E-3,1.3679221E-2],"split_indices":[6,6,3,0,3,0,0,0,0,0,0],"split_type":[0,0,0,0,0,0,0,0,0,0,0],"sum_hessian":[1.0473966E2,6.1531643E1,4.320802E1,3.587681E1,2.5654835E1,5.263158E0,3.7944862E1,3.1225643E1,4.651163E0,1.6548347E1,9.106487E0],"tree_param":{"num_deleted":"0","num_feature":"7","num_nodes":"11","size_leaf_vector":"1"}},{"base_weights":[-6.0234774E-2,-6.34877E-1,8.736442E-1,-9.262699E-1,-6.2142275E-2,4.4936694E-2,1.0283092E0,-9.851176E-2,-2.2232577E-2,-3.2747354E-2,5.144337E-3,2.0034913E-2,1.0967554E-1],"categories":[],"categories_nodes":[],"categories_segments":[],"categories_sizes":[],"default_left":[0,0,0,0,0,0,0,0,0,0,0,0,0],"id":2,"left_children":[1,3,5,7,9,-1,11,-1,-1,-1,-1,-1,-1],"loss_changes":[6.3294674E1,1.1702106E1,1.7329369E0,1.1662865E0,9.508023E-1,0E0,8.956032E-1,0E0,0E0,0E0,0E0,0E0,0E0],"parents":[2147483647,0,0,1,1,2,2,3,3,4,4,6,6],"right_children":[2,4,6,8,10,-1,12,-1,-1,-1,-1,-1,-1],"split_conditions":[4E0,2E0,2E0,2E0,1E0,4.4936694E-2,3E0,-9.851176E-2,-2.2232577E-2,-3.2747354E-2,5.144337E-3,2.0034913E-2,1.0967554E-1],"split_indices":[5,6,4,2,2,0,6,0,0,0,0,0,0],"split_type":[0,0,0,0,0,0,0,0,0,0,0,0,0],"sum_hessian":[1.16133766E2,7.242449E1,4.3709274E1,4.7014454E1,2.5410038E1,1.3583961E1,3.0125313E1,4.2363293E1,4.651163E0,8.372093E0,1.7037945E1,3.1578948E0,2.6967419E1],"tree_param":{"num_deleted":"0","num_feature":"7","num_nodes":"13","size_leaf_vector":"1"}},{"base_weights":[-5.1878433E-4,-5.8082676E-1,8.13081E-1,-6.4104587E-1,1.991946E-2,3.5726797E-2,1.0007488E-1,-8.064438E-2,-2.8501412E-2],"categories":[],"categories_nodes":[],"categories_segments":[],"categories_sizes":[],"default_left":[0,0,0,0,0,0,0,0,0],"id":3,"left_children":[1,3,5,7,-1,-1,-1,-1,-1],"loss_changes":[5.650849E1,3.6536064E0,3.203865E0,3.119793E0,0E0,0E0,0E0,0E0,0E0],"parents":[2147483647,0,0,1,1,2,2,3,3],"right_children":[2,4,6,8,-1,-1,-1,-1,-1],"split_conditions":[4E0,2E0,2E0,2E0,1.991946E-2,3.5726797E-2,1.0007488E-1,-8.064438E-2,-2.8501412E-2],"split_indices":[5,4,4,1,0,0,0,0,0],"split_type":[0,0,0,0,0,0,0,0,0],"sum_hessian":[1.1793198E2,6.936055E1,4.857143E1,6.5150024E1,4.2105265E0,1.57894745E1,3.2781956E1,4.2661682E1,2.2488338E1],"tree_param":{"num_deleted":"0","num_feature":"7","num_nodes":"9","size_leaf_vector":"1"}},{"base_weights":[6.120768E-3,-5.0476336E-1,7.394299E-1,-6.207724E-1,1.0011089E-1,1.264346E-1,8.634964E-1,-7.1246706E-2,-9.757559E-3,-0E0,2.8565899E-2,-0E0,3.6347162E-2,4.6434686E-2,9.376028E-2],"categories":[],"categories_nodes":[],"categories_segments":[],"categories_sizes":[],"default_left":[0,0,0,0,0,0,0,0,0,0,0,0,0,0,0],"id":4,"left_children":[1,3,5,7,9,11,13,-1,-1,-1,-1,-1,-1,-1,-1],"loss_changes":[4.330017E1,5.0619164E0,3.0257149E0,2.2842083E0,3.1457233E-1,3.7806183E-1,1.26571655E-2,0E0,0E0,0E0,0E0,0E0,0E0,0E0,0E0],"parents":[2147483647,0,0,1,1,2,2,3,3,4,4,5,5,6,6],"right_children":[2,4,6,8,10,12,14,-1,-1,-1,-1,-1,-1,-1,-1],"split_conditions":[1E0,2E0,2E0,3E0,2E0,2E0,2E0,-7.1246706E-2,-9.757559E-3,-0E0,2.8565899E-2,-0E0,3.6347162E-2,4.6434686E-2,9.376028E-2],"split_indices":[4,2,4,0,1,2,1,0,0,0,0,0,0,0,0],"split_type":[0,0,0,0,0,0,0,0,0,0,0,0,0,0,0],"sum_hessian":[1.1326985E2,6.65414E1,4.672845E1,5.650468E1,1.003672E1,8.883838E0,3.7844612E1,4.6957558E1,9.547124E0,5.826194E0,4.2105265E0,5.826194E0,3.0576441E0,8.120301E0,2.9724312E1],"tree_param":{"num_deleted":"0","num_feature":"7","num_nodes":"15","size_leaf_vector":"1"}},{"base_weights":[-0E0,-5.318701E-1,6.806903E-1,-6.4992243E-1,-0E0,3.633384E-2,7.9569496E-2,-6.8703726E-2,1.8173043E-3,-2.596663E-3,6.5518725E-3],"categories":[],"categories_nodes":[],"categories_segments":[],"categories_sizes":[],"default_left":[0,0,0,0,0,0,0,0,0,0,0],"id":5,"left_children":[1,3,5,7,9,-1,-1,-1,-1,-1,-1],"loss_changes":[4.2447243E1,4.1976433E0,1.0100994E0,1.6849976E0,2.7698938E-2,0E0,0E0,0E0,0E0,0E0,0E0],"parents":[2147483647,0,0,1,1,2,2,3,3,4,4],"right_children":[2,4,6,8,10,-1,-1,-1,-1,-1,-1],"split_conditions":[4E0,2E0,2E0,2E0,3E0,3.633384E-2,7.9569496E-2,-6.8703726E-2,1.8173043E-3,-2.596663E-3,6.5518725E-3],"split_indices":[5,2,4,4,0,0,0,0,0,0,0],"split_type":[0,0,0,0,0,0,0,0,0,0,0],"sum_hessian":[1.1521403E2,6.473783E1,5.0476192E1,5.2963047E1,1.1774786E1,1.5689223E1,3.478697E1,5.0857784E1,2.1052632E0,7.686659E0,4.0881276E0],"tree_param":{"num_deleted":"0","num_feature":"7","num_nodes":"11","size_leaf_vector":"1"}},{"base_weights":[4.368592E-2,-6.781477E-1,4.6172056E-1,-8.937947E-2,-5.074171E-1,8.5981995E-2,6.6859496E-1,-6.446103E-2,-1.5106611E-2,-3.3245434E-3,2.641101E-2,3.3496372E-2,7.332542E-2],"categories":[],"categories_nodes":[],"categories_segments":[],"categories_sizes":[],"default_left":[0,0,0,0,0,0,0,0,0,0,0,0,0],"id":6,"left_children":[1,3,5,-1,7,9,11,-1,-1,-1,-1,-1,-1],"loss_changes":[3.3119003E1,3.174343E-1,5.014741E0,0E0,7.717471E-1,6.9550055E-1,1.7394638E-1,0E0,0E0,0E0,0E0,0E0,0E0],"parents":[2147483647,0,0,1,1,2,2,4,4,5,5,6,6],"right_children":[2,4,6,-1,8,10,12,-1,-1,-1,-1,-1,-1],"split_conditions":[2E0,1E0,3E0,-8.937947E-2,2E0,4E0,2E0,-6.446103E-2,-1.5106611E-2,-3.3245434E-3,2.641101E-2,3.3496372E-2,7.332542E-2],"split_indices":[6,6,6,0,1,5,1,0,0,0,0,0,0],"split_type":[0,0,0,0,0,0,0,0,0,0,0,0,0],"sum_hessian":[1.0807686E2,3.89692E1,6.910765E1,1.4054053E1,2.4915148E1,2.5899633E1,4.320802E1,1.6392206E1,8.522942E0,1.4320686E1,1.1578948E1,9.273183E0,3.3934837E1],"tree_param":{"num_deleted":"0","num_feature":"7","num_nodes":"13","size_leaf_vector":"1"}},{"base_weights":[9.206557E-3,-2.5784537E-1,6.578493E-2,-4.9932802E-1,-0E0,-6.0070004E-2,-2.370174E-2,-1.5743379E-2,2.8116478E-2],"categories":[],"categories_nodes":[],"categories_segments":[],"categories_sizes":[],"default_left":[0,0,0,0,0,0,0,0,0],"id":7,"left_children":[1,3,-1,5,7,-1,-1,-1,-1],"loss_changes":[2.0062233E1,4.875848E0,0E0,5.309992E-1,1.8056586E0,0E0,0E0,0E0,0E0],"parents":[2147483647,0,0,1,1,3,3,4,4],"right_children":[2,4,-1,6,8,-1,-1,-1,-1],"split_conditions":[2E0,1E0,6.578493E-2,2E0,3E0,-6.0070004E-2,-2.370174E-2,-1.5743379E-2,2.8116478E-2],"split_indices":[3,2,0,1,0,0,0,0,0],"split_type":[0,0,0,0,0,0,0,0,0],"sum_hessian":[1.1268467E2,7.970221E1,3.2982456E1,4.0075424E1,3.9626785E1,2.6599623E1,1.3475801E1,2.6365726E1,1.326106E1],"tree_param":{"num_deleted":"0","num_feature":"7","num_nodes":"9","size_leaf_vector":"1"}},{"base_weights":[3.1879792E-4,-5.8959895E-1,3.846533E-1,-7.0944315E-1,-3.1878912E-1,6.3114606E-2,5.526355E-1,-7.467276E-2,-0E0,-5.9360433E-2,-1.7060412E-2,-8.710868E-3,1.5575445E-2,2.0123532E-2,5.9270002E-2],"categories":[],"categories_nodes":[],"categories_segments":[],"categories_sizes":[],"default_left":[0,0,0,0,0,0,0,0,0,0,0,0,0,0,0],"id":8,"left_children":[1,3,5,7,9,11,13,-1,-1,-1,-1,-1,-1,-1,-1],"loss_changes":[2.5562424E1,6.923723E-1,3.3870993E0,5.101938E-1,1.9418049E-1,4.0759447E-1,1.0615063E-1,0E0,0E0,0E0,0E0,0E0,0E0,0E0,0E0],"parents":[2147483647,0,0,1,1,2,2,3,3,4,4,5,5,6,6],"right_children":[2,4,6,8,10,12,14,-1,-1,-1,-1,-1,-1,-1,-1],"split_conditions":[2E0,2E0,3E0,2E0,1E0,1E0,4E0,-7.467276E-2,-0E0,-5.9360433E-2,-1.7060412E-2,-8.710868E-3,1.5575445E-2,2.0123532E-2,5.9270002E-2],"split_indices":[6,1,6,2,6,2,5,0,0,0,0,0,0,0,0],"split_type":[0,0,0,0,0,0,0,0,0,0,0,0,0,0,0],"sum_hessian":[1.111977E2,4.3142677E1,6.805502E1,2.7504713E1,1.5637963E1,2.4847002E1,4.320802E1,2.5644247E1,1.8604652E0,3.2432432E0,1.239472E1,7.4418607E0,1.7405142E1,6.3157897E0,3.689223E1],"tree_param":{"num_deleted":"0","num_feature":"7","num_nodes":"15","size_leaf_vector":"1"}},{"base_weights":[1.2226319E-2,-3.2208136E-1,4.6511707E-1,-3.934893E-1,1.13963164E-1,2.4450846E-2,5.649097E-1,-4.4008818E-2,-0E0,-0E0,2.5859922E-2,1.7288892E-2,6.138301E-2],"categories":[],"categories_nodes":[],"categories_segments":[],"categories_sizes":[],"default_left":[0,0,0,0,0,0,0,0,0,0,0,0,0],"id":9,"left_children":[1,3,5,7,9,-1,11,-1,-1,-1,-1,-1,-1],"loss_changes":[1.7557703E1,2.2344146E0,5.5069256E-1,9.3574333E-1,2.3085858E-1,0E0,1.1185074E-1,0E0,0E0,0E0,0E0,0E0,0E0],"parents":[2147483647,0,0,1,1,2,2,3,3,4,4,6,6],"right_children":[2,4,6,8,10,-1,12,-1,-1,-1,-1,-1,-1],"split_conditions":[4E0,2E0,2E0,1E0,2E0,2.4450846E-2,2E0,-4.4008818E-2,-0E0,-0E0,2.5859922E-2,1.7288892E-2,6.138301E-2],"split_indices":[5,2,4,4,1,0,1,0,0,0,0,0,0],"split_type":[0,0,0,0,0,0,0,0,0,0,0,0,0],"sum_hessian":[1.1350346E2,6.483179E1,4.867168E1,5.6777927E1,8.053856E0,1.7794487E1,3.0877193E1,5.0021503E1,6.7564263E0,3.8433294E0,4.2105265E0,5.062657E0,2.5814537E1],"tree_param":{"num_deleted":"0","num_feature":"7","num_nodes":"13","size_leaf_vector":"1"}},{"base_weights":[-1.0863733E-2,-3.169958E-1,4.2583132E-1,-3.5420772E-1,1.1278714E-2,1.5632734E-2,4.9449768E-2,-4.0135678E-2,-0E0],"categories":[],"categories_nodes":[],"categories_segments":[],"categories_sizes":[],"default_left":[0,0,0,0,0,0,0,0,0],"id":10,"left_children":[1,3,5,7,-1,-1,-1,-1,-1],"loss_changes":[1.5557984E1,1.2691069E0,4.7568703E-1,9.112501E-1,0E0,0E0,0E0,0E0,0E0],"parents":[2147483647,0,0,1,1,2,2,3,3],"right_children":[2,4,6,8,-1,-1,-1,-1,-1],"split_conditions":[4E0,2E0,1E0,2E0,1.1278714E-2,1.5632734E-2,4.9449768E-2,-4.0135678E-2,-0E0],"split_indices":[5,4,4,2,0,0,0,0,0],"split_type":[0,0,0,0,0,0,0,0,0],"sum_hessian":[1.14774086E2,6.8307915E1,4.6466167E1,6.409739E1,4.2105265E0,1.1578948E1,3.488722E1,5.53581E1,8.73929E0],"tree_param":{"num_deleted":"0","num_feature":"7","num_nodes":"9","size_leaf_vector":"1"}},{"base_weights":[-1.1254037E-3,-2.7770025E-1,3.6694172E-1,-4.144718E-1,-2.4404546E-2,1.7168835E-2,4.5205438E-1,-4.362147E-2,-0E0,-8.680451E-3,2.1371499E-2,3.217994E-3,5.1095873E-2],"categories":[],"categories_nodes":[],"categories_segments":[],"categories_sizes":[],"default_left":[0,0,0,0,0,0,0,0,0,0,0,0,0],"id":11,"left_children":[1,3,5,7,9,-1,11,-1,-1,-1,-1,-1,-1],"loss_changes":[1.2174534E1,2.171525E0,4.5348024E-1,6.07285E-1,3.5102323E-1,0E0,5.264225E-1,0E0,0E0,0E0,0E0,0E0,0E0],"parents":[2147483647,0,0,1,1,2,2,3,3,4,4,6,6],"right_children":[2,4,6,8,10,-1,12,-1,-1,-1,-1,-1,-1],"split_conditions":[4E0,2E0,2E0,2E0,2E0,1.7168835E-2,1E0,-4.362147E-2,-0E0,-8.680451E-3,2.1371499E-2,3.217994E-3,5.1095873E-2],"split_indices":[5,1,4,3,3,0,3,0,0,0,0,0,0],"split_type":[0,0,0,0,0,0,0,0,0,0,0,0,0],"sum_hessian":[1.1803223E2,6.8307915E1,4.972431E1,4.2661682E1,2.5646235E1,1.7794487E1,3.1929825E1,4.160905E1,1.0526316E0,2.2488338E1,3.1578948E0,5.1629076E0,2.6766918E1],"tree_param":{"num_deleted":"0","num_feature":"7","num_nodes":"13","size_leaf_vector":"1"}},{"base_weights":[4.3329694E-3,-4.3262213E-1,2.6365703E-1,-4.6335153E-2,-5.180031E-4,5.2544203E-2,4.3322567E-2,-0E0,1.543905E-2],"categories":[],"categories_nodes":[],"categories_segments":[],"categories_sizes":[],"default_left":[0,0,0,0,0,0,0,0,0],"id":12,"left_children":[1,3,5,-1,-1,7,-1,-1,-1],"loss_changes":[1.2010176E1,2.7611208E-1,2.1575665E0,0E0,0E0,1.8473163E-1,0E0,0E0,0E0],"parents":[2147483647,0,0,1,1,2,2,5,5],"right_children":[2,4,6,-1,-1,8,-1,-1,-1],"split_conditions":[2E0,2E0,3E0,-4.6335153E-2,-5.180031E-4,4E0,4.3322567E-2,-0E0,1.543905E-2],"split_indices":[6,2,6,0,0,5,0,0,0],"split_type":[0,0,0,0,0,0,0,0,0],"sum_hessian":[1.0473012E2,3.8038967E1,6.669115E1,3.431804E1,3.7209303E0,3.1603428E1,3.508772E1,2.1077112E1,1.0526316E1],"tree_param":{"num_deleted":"0","num_feature":"7","num_nodes":"9","size_leaf_vector":"1"}},{"base_weights":[-3.3207376E-2,-3.954384E-1,2.2653931E-1,-5.419553E-2,-2.7821982E-2,6.708117E-4,3.0186534E-1,-0E0,2.4599764E-3,-0E0,3.30086E-2],"categories":[],"categories_nodes":[],"categories_segments":[],"categories_sizes":[],"default_left":[0,0,0,0,0,0,0,0,0,0,0],"id":13,"left_children":[1,3,5,-1,-1,7,9,-1,-1,-1,-1],"loss_changes":[1.0133738E1,2.1841621E-1,8.945408E-1,0E0,0E0,6.1818766E-3,4.8852348E-1,0E0,0E0,0E0,0E0],"parents":[2147483647,0,0,1,1,2,2,5,5,6,6],"right_children":[2,4,6,-1,-1,8,10,-1,-1,-1,-1],"split_conditions":[2E0,1E0,1E0,-5.419553E-2,-2.7821982E-2,2E0,1E0,-0E0,2.4599764E-3,-0E0,3.30086E-2],"split_indices":[6,6,3,0,0,2,2,0,0,0,0],"split_type":[0,0,0,0,0,0,0,0,0,0,0],"sum_hessian":[1.0485488E2,4.4374607E1,6.048027E1,1.6216215E1,2.815839E1,1.7037945E1,4.344233E1,7.8090577E0,9.228887E0,2.7906978E0,4.065163E1],"tree_param":{"num_deleted":"0","num_feature":"7","num_nodes":"11","size_leaf_vector":"1"}},{"base_weights":[1.2842865E-2,-1.9026423E-1,2.9258403E-1,-3.1161988E-1,3.511477E-2,1.2508747E-2,3.3502245E-1,-3.6119774E-2,1.0354993E-3,-6.495143E-4,8.943616E-3,8.941981E-3,3.6528826E-2],"categories":[],"categories_nodes":[],"categories_segments":[],"categories_sizes":[],"default_left":[0,0,0,0,0,0,0,0,0,0,0,0,0],"id":14,"left_children":[1,3,5,7,9,-1,11,-1,-1,-1,-1,-1,-1],"loss_changes":[6.8667526E0,2.0227416E0,9.394598E-2,9.1454744E-1,9.50137E-2,0E0,2.3139E-2,0E0,0E0,0E0,0E0,0E0,0E0],"parents":[2147483647,0,0,1,1,2,2,3,3,4,4,6,6],"right_children":[2,4,6,8,10,-1,12,-1,-1,-1,-1,-1,-1],"split_conditions":[4E0,2E0,2E0,3E0,2E0,1.2508747E-2,1E0,-3.6119774E-2,1.0354993E-3,-6.495143E-4,8.943616E-3,8.941981E-3,3.6528826E-2],"split_indices":[5,1,1,0,0,0,4,0,0,0,0,0,0],"split_type":[0,0,0,0,0,0,0,0,0,0,0,0,0],"sum_hessian":[1.1797627E2,6.7500084E1,5.0476192E1,4.506864E1,2.243144E1,1.3383459E1,3.709273E1,4.029508E1,4.773562E0,7.9883556E0,1.4443085E1,6.3157897E0,3.0776943E1],"tree_param":{"num_deleted":"0","num_feature":"7","num_nodes":"13","size_leaf_vector":"1"}},{"base_weights":[-2.0824123E-2,-3.1979862E-1,1.8180773E-1,-4.917782E-2,-2.0728484E-1,2.614759E-2,2.7169079E-2,-3.0220777E-2,-0E0,-0E0,3.9047392E-3],"categories":[],"categories_nodes":[],"categories_segments":[],"categories_sizes":[],"default_left":[0,0,0,0,0,0,0,0,0,0,0],"id":15,"left_children":[1,3,5,-1,7,9,-1,-1,-1,-1,-1],"loss_changes":[6.9843965E0,4.596138E-1,7.828703E-1,0E0,5.9682703E-1,1.4605476E-2,0E0,0E0,0E0,0E0,0E0],"parents":[2147483647,0,0,1,1,2,2,4,4,5,5],"right_children":[2,4,6,-1,8,10,-1,-1,-1,-1,-1],"split_conditions":[2E0,2E0,3E0,-4.917782E-2,2E0,2E0,2.7169079E-2,-3.0220777E-2,-0E0,-0E0,3.9047392E-3],"split_indices":[6,0,6,0,1,0,0,0,0,0,0],"split_type":[0,0,0,0,0,0,0,0,0,0,0],"sum_hessian":[1.12190186E2,4.6084225E1,6.6105965E1,1.5135135E1,3.094909E1,2.6707468E1,3.93985E1,2.0565681E1,1.0383407E1,5.7037945E0,2.1003674E1],"tree_param":{"num_deleted":"0","num_feature":"7","num_nodes":"11","size_leaf_vector":"1"}},{"base_weights":[-1.5334023E-2,-3.038034E-1,1.6835865E-1,-4.3335203E-2,-1.9515589E-1,2.7886176E-2,2.887669E-1,-2.1299167E-2,-0E0,-7.03142E-5,8.9177815E-3,-0E0,3.0171538E-2],"categories":[],"categories_nodes":[],"categories_segments":[],"categories_sizes":[],"default_left":[0,0,0,0,0,0,0,0,0,0,0,0,0],"id":16,"left_children":[1,3,5,-1,7,9,11,-1,-1,-1,-1,-1,-1],"loss_changes":[5.938491E0,2.2248936E-1,9.6149707E-1,0E0,3.4492373E-2,1.03528365E-1,6.741142E-2,0E0,0E0,0E0,0E0,0E0,0E0],"parents":[2147483647,0,0,1,1,2,2,4,4,5,5,6,6],"right_children":[2,4,6,-1,8,10,12,-1,-1,-1,-1,-1,-1],"split_conditions":[2E0,1E0,2E0,-4.3335203E-2,1E0,2E0,3E0,-2.1299167E-2,-0E0,-7.03142E-5,8.9177815E-3,-0E0,3.0171538E-2],"split_indices":[6,6,4,0,4,2,6,0,0,0,0,0,0],"split_type":[0,0,0,0,0,0,0,0,0,0,0,0,0],"sum_hessian":[1.0882549E2,4.3142677E1,6.5682816E1,1.6216215E1,2.692646E1,3.2800606E1,3.2882206E1,2.320553E1,3.7209303E0,1.747858E1,1.5322026E1,2.1052632E0,3.0776943E1],"tree_param":{"num_deleted":"0","num_feature":"7","num_nodes":"13","size_leaf_vector":"1"}},{"base_weights":[-8.399696E-3,-2.4805878E-1,1.4366835E-1,-3.847613E-2,-1.5098062E-1,-0E0,2.3553798E-1,-2.4082672E-2,8.985211E-4,-2.5983704E-3,4.7449274E-3,-0E0,2.6037449E-2],"categories":[],"categories_nodes":[],"categories_segments":[],"categories_sizes":[],"default_left":[0,0,0,0,0,0,0,0,0,0,0,0,0],"id":17,"left_children":[1,3,5,-1,7,9,11,-1,-1,-1,-1,-1,-1],"loss_changes":[4.455378E0,3.1323075E-1,9.4694746E-1,0E0,5.772667E-1,3.8806736E-2,1.8644834E-1,0E0,0E0,0E0,0E0,0E0,0E0],"parents":[2147483647,0,0,1,1,2,2,4,4,5,5,6,6],"right_children":[2,4,6,-1,8,10,12,-1,-1,-1,-1,-1,-1],"split_conditions":[2E0,1E0,3E0,-3.847613E-2,2E0,4E0,1E0,-2.4082672E-2,8.985211E-4,-2.5983704E-3,4.7449274E-3,-0E0,2.6037449E-2],"split_indices":[6,6,6,0,1,5,4,0,0,0,0,0,0],"split_type":[0,0,0,0,0,0,0,0,0,0,0,0,0],"sum_hessian":[1.18841E2,4.7165302E1,7.1675705E1,1.6216215E1,3.094909E1,2.8567932E1,4.310777E1,2.1495914E1,9.453175E0,1.8041616E1,1.0526316E1,5.263158E0,3.7844612E1],"tree_param":{"num_deleted":"0","num_feature":"7","num_nodes":"13","size_leaf_vector":"1"}},{"base_weights":[-0E0,-1.16528474E-1,2.4131445E-2,-1.9861111E-1,-5.063415E-4,-2.1958282E-2,-0E0,-4.8666014E-3,3.959679E-3],"categories":[],"categories_nodes":[],"categories_segments":[],"categories_sizes":[],"default_left":[0,0,0,0,0,0,0,0,0],"id":18,"left_children":[1,3,-1,5,7,-1,-1,-1,-1],"loss_changes":[3.3767204E0,6.821202E-1,0E0,1.3037372E-1,7.896416E-2,0E0,0E0,0E0,0E0],"parents":[2147483647,0,0,1,1,3,3,4,4],"right_children":[2,4,-1,6,8,-1,-1,-1,-1],"split_conditions":[2E0,1E0,2.4131445E-2,3E0,3E0,-2.1958282E-2,-0E0,-4.8666014E-3,3.959679E-3],"split_indices":[4,2,0,0,0,0,0,0,0],"split_type":[0,0,0,0,0,0,0,0,0],"sum_hessian":[1.1893496E2,8.109035E1,3.7844612E1,4.45506E1,3.653975E1,3.89692E1,5.5813956E0,2.2170101E1,1.4369645E1],"tree_param":{"num_deleted":"0","num_feature":"7","num_nodes":"9","size_leaf_vector":"1"}},{"base_weights":[-2.0155745E-2,-1.9636384E-1,7.674305E-2,-2.2543089E-1,-0E0,-0E0,1.7697445E-1,-2.649184E-2,-7.6255533E-3,-5.6660343E-3,9.231783E-3,8.943813E-4,1.9759877E-2],"categories":[],"categories_nodes":[],"categories_segments":[],"categories_sizes":[],"default_left":[0,0,0,0,0,0,0,0,0,0,0,0,0],"id":19,"left_children":[1,3,5,7,-1,9,11,-1,-1,-1,-1,-1,-1],"loss_changes":[2.0310154E0,2.4060893E-1,5.790223E-1,2.8213978E-2,0E0,2.1914896E-1,6.474614E-3,0E0,0E0,0E0,0E0,0E0,0E0],"parents":[2147483647,0,0,1,1,2,2,3,3,5,5,6,6],"right_children":[2,4,6,8,-1,10,12,-1,-1,-1,-1,-1,-1],"split_conditions":[1E0,3E0,2E0,2E0,-0E0,3E0,2E0,-2.649184E-2,-7.6255533E-3,-5.6660343E-3,9.231783E-3,8.943813E-4,1.9759877E-2],"split_indices":[2,0,4,1,0,0,1,0,0,0,0,0,0],"split_type":[0,0,0,0,0,0,0,0,0,0,0,0,0],"sum_hessian":[1.1356572E2,4.17599E1,7.180582E1,3.6178505E1,5.5813956E0,4.0627876E1,3.1177946E1,2.534255E1,1.0835952E1,2.613583E1,1.4492044E1,6.215539E0,2.4962406E1],"tree_param":{"num_deleted":"0","num_feature":"7","num_nodes":"13","size_leaf_vector":"1"}},{"base_weights":[-1.888946E-2,-1.0958124E-1,1.8184209E-1,-1.9722036E-1,7.7330135E-2,1.0980708E-2,2.8645683E-2,-2.304508E-2,-0E0,-0E0,1.1137482E-2],"categories":[],"categories_nodes":[],"categories_segments":[],"categories_sizes":[],"default_left":[0,0,0,0,0,0,0,0,0,0,0],"id":20,"left_children":[1,3,5,7,9,-1,-1,-1,-1,-1,-1],"loss_changes":[2.067046E0,1.4046905E0,2.8689742E-2,3.4300876E-1,7.554731E-2,0E0,0E0,0E0,0E0,0E0,0E0],"parents":[2147483647,0,0,1,1,2,2,3,3,4,4],"right_children":[2,4,6,8,10,-1,-1,-1,-1,-1,-1],"split_conditions":[2E0,3E0,4E0,1E0,1E0,1.0980708E-2,2.8645683E-2,-2.304508E-2,-0E0,-0E0,1.1137482E-2],"split_indices":[2,0,2,4,3,0,0,0,0,0,0],"split_type":[0,0,0,0,0,0,0,0,0,0,0],"sum_hessian":[1.13434715E2,8.0162E1,3.3272717E1,5.635714E1,2.3804861E1,2.3748907E1,9.523809E0,4.7467E1,8.890139E0,6.7564263E0,1.7048435E1],"tree_param":{"num_deleted":"0","num_feature":"7","num_nodes":"11","size_leaf_vector":"1"}},{"base_weights":[8.212397E-3,-1.6292363E-1,1.1881838E-1,-3.08031E-2,-5.902976E-2,-0E0,1.67268E-1,-1.6711757E-2,-5.3236546E-4,2.7279665E-3,-1.2658328E-3,4.6581673E-3,2.012638E-2],"categories":[],"categories_nodes":[],"categories_segments":[],"categories_sizes":[],"default_left":[0,0,0,0,0,0,0,0,0,0,0,0,0],"id":21,"left_children":[1,3,5,-1,7,9,11,-1,-1,-1,-1,-1,-1],"loss_changes":[2.1691122E0,4.5694876E-1,3.6233485E-1,0E0,7.952643E-2,1.3125339E-2,6.898987E-2,0E0,0E0,0E0,0E0,0E0,0E0],"parents":[2147483647,0,0,1,1,2,2,4,4,5,5,6,6],"right_children":[2,4,6,-1,8,10,12,-1,-1,-1,-1,-1,-1],"split_conditions":[2E0,2E0,1E0,-3.08031E-2,1E0,3E0,3E0,-1.6711757E-2,-5.3236546E-4,2.7279665E-3,-1.2658328E-3,4.6581673E-3,2.012638E-2],"split_indices":[6,0,3,0,6,0,6,0,0,0,0,0,0],"split_type":[0,0,0,0,0,0,0,0,0,0,0,0,0],"sum_hessian":[1.1373635E2,4.2690132E1,7.104622E1,1.4984286E1,2.7705845E1,2.274174E1,4.830448E1,5.405405E0,2.230044E1,1.4687883E1,8.053856E0,1.4369645E1,3.3934837E1],"tree_param":{"num_deleted":"0","num_feature":"7","num_nodes":"13","size_leaf_vector":"1"}},{"base_weights":[-0E0,-9.9145256E-2,1.9535454E-2,-1.7494123E-1,1.793484E-2,-2.1795949E-2,-0E0,4.0637907E-3,-0E0],"categories":[],"categories_nodes":[],"categories_segments":[],"categories_sizes":[],"default_left":[0,0,0,0,0,0,0,0,0],"id":22,"left_children":[1,3,-1,5,7,-1,-1,-1,-1],"loss_changes":[2.241589E0,7.704425E-1,0E0,4.6494532E-1,2.9830644E-2,0E0,0E0,0E0,0E0],"parents":[2147483647,0,0,1,1,3,3,4,4],"right_children":[2,4,-1,6,8,-1,-1,-1,-1],"split_conditions":[2E0,2E0,1.9535454E-2,2E0,1E0,-2.1795949E-2,-0E0,4.0637907E-3,-0E0],"split_indices":[4,1,0,2,4,0,0,0,0],"split_type":[0,0,0,0,0,0,0,0,0],"sum_hessian":[1.1436284E2,7.661848E1,3.774436E1,4.8801483E1,2.7816998E1,4.0870026E1,7.9314566E0,2.2676239E1,5.140759E0],"tree_param":{"num_deleted":"0","num_feature":"7","num_nodes":"9","size_leaf_vector":"1"}},{"base_weights":[1.9359648E-2,-1.4581218E-1,1.1305103E-1,-2.4968356E-2,-3.9022304E-2,-0E0,1.37047535E-2,-0E0,-7.855124E-3],"categories":[],"categories_nodes":[],"categories_segments":[],"categories_sizes":[],"default_left":[0,0,0,0,0,0,0,0,0],"id":23,"left_children":[1,3,5,-1,7,-1,-1,-1,-1],"loss_changes":[1.640755E0,2.5495654E-1,2.2876501E-1,0E0,2.7514014E-2,0E0,0E0,0E0,0E0],"parents":[2147483647,0,0,1,1,2,2,4,4],"right_children":[2,4,6,-1,8,-1,-1,-1,-1],"split_conditions":[2E0,1E0,1E0,-2.4968356E-2,1E0,-0E0,1.37047535E-2,-0E0,-7.855124E-3],"split_indices":[6,6,2,0,2,0,0,0,0],"split_type":[0,0,0,0,0,0,0,0,0],"sum_hessian":[1.05018265E2,3.587681E1,6.914146E1,1.5135135E1,2.0741673E1,1.0232558E1,5.89089E1,1.1917033E1,8.824638E0],"tree_param":{"num_deleted":"0","num_feature":"7","num_nodes":"9","size_leaf_vector":"1"}},{"base_weights":[-8.2778255E-4,-1.7514965E-1,1.1212398E-1,-1.9834834E-1,3.284355E-3,-0E0,1.3001525E-1,-2.1040516E-2,-0E0,5.7658115E-3,1.580265E-2],"categories":[],"categories_nodes":[],"categories_segments":[],"categories_sizes":[],"default_left":[0,0,0,0,0,0,0,0,0,0,0],"id":24,"left_children":[1,3,5,7,-1,-1,9,-1,-1,-1,-1],"loss_changes":[2.4874098E0,3.3428884E-1,1.6312277E-1,1.1295915E-1,0E0,0E0,1.4076948E-2,0E0,0E0,0E0,0E0],"parents":[2147483647,0,0,1,1,2,2,3,3,6,6],"right_children":[2,4,6,8,-1,-1,10,-1,-1,-1,-1],"split_conditions":[2E0,3E0,1E0,2E0,3.284355E-3,-0E0,3E0,-2.1040516E-2,-0E0,5.7658115E-3,1.580265E-2],"split_indices":[6,0,2,2,0,0,6,0,0,0,0],"split_type":[0,0,0,0,0,0,0,0,0,0,0],"sum_hessian":[1.22730995E2,4.978001E1,7.295098E1,4.6989315E1,2.7906978E0,9.302326E0,6.364866E1,4.4198616E1,2.7906978E0,2.3598532E1,4.0050125E1],"tree_param":{"num_deleted":"0","num_feature":"7","num_nodes":"11","size_leaf_vector":"1"}},{"base_weights":[1.7741516E-2,-1.126575E-1,1.0495211E-1,-2.2854175E-2,-3.387654E-2,9.882737E-3,1.4166956E-1,-1.3284502E-2,-0E0,4.6817116E-3,-6.281023E-4,4.572805E-3,1.7340785E-2],"categories":[],"categories_nodes":[],"categories_segments":[],"categories_sizes":[],"default_left":[0,0,0,0,0,0,0,0,0,0,0,0,0],"id":25,"left_children":[1,3,5,-1,7,9,11,-1,-1,-1,-1,-1,-1],"loss_changes":[1.4483433E0,3.078878E-1,1.9758719E-1,0E0,1.3254441E-1,3.656129E-2,4.3625236E-2,0E0,0E0,0E0,0E0,0E0,0E0],"parents":[2147483647,0,0,1,1,2,2,4,4,5,5,6,6],"right_children":[2,4,6,-1,8,10,12,-1,-1,-1,-1,-1,-1],"split_conditions":[2E0,2E0,1E0,-2.2854175E-2,1E0,3E0,2E0,-1.3284502E-2,-0E0,4.6817116E-3,-6.281023E-4,4.572805E-3,1.7340785E-2],"split_indices":[6,0,3,0,6,0,4,0,0,0,0,0,0],"split_type":[0,0,0,0,0,0,0,0,0,0,0,0,0],"sum_hessian":[1.2565758E2,4.7944687E1,7.771289E1,1.6065367E1,3.187932E1,2.5799383E1,5.1913506E1,8.648648E0,2.3230673E1,1.6692896E1,9.106487E0,1.742729E1,3.4486217E1],"tree_param":{"num_deleted":"0","num_feature":"7","num_nodes":"13","size_leaf_vector":"1"}},{"base_weights":[-0E0,-9.4649985E-2,5.8347303E-2,-2.245376E-2,-3.5773793E-3,-0E0,9.9504955E-2,-1.1187792E-2,1.4939419E-3,1.8460521E-3,-2.1963583E-3,-0E0,1.1097448E-2],"categories":[],"categories_nodes":[],"categories_segments":[],"categories_sizes":[],"default_left":[0,0,0,0,0,0,0,0,0,0,0,0,0],"id":26,"left_children":[1,3,5,-1,7,9,11,-1,-1,-1,-1,-1,-1],"loss_changes":[6.8152773E-1,4.403237E-1,1.5282208E-1,0E0,1.120427E-1,1.3851735E-2,4.9060047E-2,0E0,0E0,0E0,0E0,0E0,0E0],"parents":[2147483647,0,0,1,1,2,2,4,4,5,5,6,6],"right_children":[2,4,6,-1,8,10,12,-1,-1,-1,-1,-1,-1],"split_conditions":[2E0,2E0,2E0,-2.245376E-2,1E0,1E0,3E0,-1.1187792E-2,1.4939419E-3,1.8460521E-3,-2.1963583E-3,-0E0,1.1097448E-2],"split_indices":[6,0,4,0,6,4,6,0,0,0,0,0,0],"split_type":[0,0,0,0,0,0,0,0,0,0,0,0,0],"sum_hessian":[1.216191E2,4.5933372E1,7.568573E1,1.6065367E1,2.9868008E1,3.488372E1,4.0802006E1,7.5675673E0,2.230044E1,2.6829866E1,8.053856E0,4.2105265E0,3.659148E1],"tree_param":{"num_deleted":"0","num_feature":"7","num_nodes":"13","size_leaf_vector":"1"}},{"base_weights":[1.0024123E-3,-5.6996584E-2,6.8613775E-2,-1.7310672E-2,-0E0,-0E0,1.1295638E-1,1.2025934E-3,-3.2580018E-3,3.6367439E-3,-5.143814E-3,-0E0,1.215578E-2],"categories":[],"categories_nodes":[],"categories_segments":[],"categories_sizes":[],"default_left":[0,0,0,0,0,0,0,0,0,0,0,0,0],"id":27,"left_children":[1,3,5,-1,7,9,11,-1,-1,-1,-1,-1,-1],"loss_changes":[4.386719E-1,3.5009485E-1,1.4678422E-1,0E0,1.757352E-2,4.435796E-2,3.2990992E-2,0E0,0E0,0E0,0E0,0E0,0E0],"parents":[2147483647,0,0,1,1,2,2,4,4,5,5,6,6],"right_children":[2,4,6,-1,8,10,12,-1,-1,-1,-1,-1,-1],"split_conditions":[1E0,2E0,2E0,-1.7310672E-2,3E0,4E0,4E0,1.2025934E-3,-3.2580018E-3,3.6367439E-3,-5.143814E-3,-0E0,1.215578E-2],"split_indices":[3,0,4,0,0,5,5,0,0,0,0,0,0],"split_type":[0,0,0,0,0,0,0,0,0,0,0,0,0],"sum_hessian":[1.0838785E2,5.444507E1,5.3942776E1,1.6693903E1,3.7751167E1,2.3165834E1,3.0776943E1,2.5853981E1,1.1897185E1,1.5797414E1,7.3684216E0,2.1052632E0,2.8671679E1],"tree_param":{"num_deleted":"0","num_feature":"7","num_nodes":"13","size_leaf_vector":"1"}},{"base_weights":[-8.54369E-3,-1.4199081E-2,8.220905E-2,2.189375E-2,1.2698314E-1,4.738783E-3,-9.3086384E-4,-0E0,1.403708E-2],"categories":[],"categories_nodes":[],"categories_segments":[],"categories_sizes":[],"default_left":[0,0,0,0,0,0,0,0,0],"id":28,"left_children":[1,-1,3,5,7,-1,-1,-1,-1],"loss_changes":[1.4139454E0,0E0,1.00621104E-1,4.65454E-2,5.5282116E-2,0E0,0E0,0E0,0E0],"parents":[2147483647,0,0,2,2,3,3,4,4],"right_children":[2,-1,4,6,8,-1,-1,-1,-1],"split_conditions":[2E0,-1.4199081E-2,2E0,3E0,3E0,4.738783E-3,-9.3086384E-4,-0E0,1.403708E-2],"split_indices":[6,0,4,6,6,0,0,0,0],"split_type":[0,0,0,0,0,0,0,0,0],"sum_hessian":[1.1231983E2,4.7467E1,6.485283E1,3.302326E1,3.1829575E1,2.6707468E1,6.3157897E0,3.1578948E0,2.8671679E1],"tree_param":{"num_deleted":"0","num_feature":"7","num_nodes":"9","size_leaf_vector":"1"}},{"base_weights":[-0E0,-8.794384E-2,5.5728737E-2,-1.605886E-2,-3.3201077E-3,-0E0,8.232202E-2,-0E0,1.0055983E-2],"categories":[],"categories_nodes":[],"categories_segments":[],"categories_sizes":[],"default_left":[0,0,0,0,0,0,0,0,0],"id":29,"left_children":[1,3,5,-1,-1,-1,7,-1,-1],"loss_changes":[5.599004E-1,7.581854E-2,1.04721606E-1,0E0,0E0,0E0,4.4545412E-2,0E0,0E0],"parents":[2147483647,0,0,1,1,2,2,6,6],"right_children":[2,4,6,-1,-1,-1,8,-1,-1],"split_conditions":[2E0,1E0,1E0,-1.605886E-2,-3.3201077E-3,-0E0,3E0,-0E0,1.0055983E-2],"split_indices":[6,6,4,0,0,0,6,0,0],"split_type":[0,0,0,0,0,0,0,0,0],"sum_hessian":[1.1155929E2,4.3771214E1,6.778808E1,1.4054053E1,2.971716E1,2.1811506E1,4.597657E1,1.1089352E1,3.488722E1],"tree_param":{"num_deleted":"0","num_feature":"7","num_nodes":"9","size_leaf_vector":"1"}},{"base_weights":[-0E0,-1.468184E-2,2.2879124E-2,3.836139E-3,7.434492E-3,-0E0,7.668031E-3],"categories":[],"categories_nodes":[],"categories_segments":[],"categories_sizes":[],"default_left":[0,0,0,0,0,0,0],"id":30,"left_children":[1,-1,3,5,-1,-1,-1],"loss_changes":[4.4624037E-1,0E0,5.7666175E-2,4.3895554E-2,0E0,0E0,0E0],"parents":[2147483647,0,0,2,2,3,3],"right_children":[2,-1,4,6,-1,-1,-1],"split_conditions":[1E0,-1.468184E-2,4E0,4E0,7.434492E-3,-0E0,7.668031E-3],"split_indices":[6,0,0,2,0,0,0],"split_type":[0,0,0,0,0,0,0],"sum_hessian":[1.1531333E2,1.7297297E1,9.801604E1,7.941954E1,1.859649E1,7.275288E1,6.6666665E0],"tree_param":{"num_deleted":"0","num_feature":"7","num_nodes":"7","size_leaf_vector":"1"}},{"base_weights":[-0E0,-1.2104304E-2,1.3908932E-2,-1.567498E-1,1.19663635E-2,-1.6787784E-2,-0E0,-3.6922385E-5,8.486753E-3],"categories":[],"categories_nodes":[],"categories_segments":[],"categories_sizes":[],"default_left":[0,0,0,0,0,0,0,0,0],"id":31,"left_children":[1,3,-1,5,7,-1,-1,-1,-1],"loss_changes":[2.0536575E-1,4.620805E-1,0E0,1.593548E-2,1.2632693E-1,0E0,0E0,0E0,0E0],"parents":[2147483647,0,0,1,1,3,3,4,4],"right_children":[2,4,-1,6,8,-1,-1,-1,-1],"split_conditions":[4E0,2E0,1.3908932E-2,1E0,4E0,-1.6787784E-2,-0E0,-3.6922385E-5,8.486753E-3],"split_indices":[1,0,0,4,0,0,0,0,0],"split_type":[0,0,0,0,0,0,0,0,0],"sum_hessian":[1.1915761E2,1.1038567E2,8.77193E0,1.7925833E1,9.245985E1,1.6065367E1,1.8604652E0,7.406385E1,1.839599E1],"tree_param":{"num_deleted":"0","num_feature":"7","num_nodes":"9","size_leaf_vector":"1"}},{"base_weights":[-1.8191257E-2,-3.5983745E-2,1.718733E-2,-6.971627E-2,1.843171E-2,-8.229531E-3,-0E0,-0E0,7.013661E-3],"categories":[],"categories_nodes":[],"categories_segments":[],"categories_sizes":[],"default_left":[0,0,0,0,0,0,0,0,0],"id":32,"left_children":[1,3,-1,5,7,-1,-1,-1,-1],"loss_changes":[3.372353E-1,2.3089354E-1,0E0,4.128039E-2,4.366512E-2,0E0,0E0,0E0,0E0],"parents":[2147483647,0,0,1,1,3,3,4,4],"right_children":[2,4,-1,6,8,-1,-1,-1,-1],"split_conditions":[4E0,3E0,1.718733E-2,1E0,3E0,-8.229531E-3,-0E0,-0E0,7.013661E-3],"split_indices":[1,6,0,4,4,0,0,0,0],"split_type":[0,0,0,0,0,0,0,0,0],"sum_hessian":[1.169859E2,1.1011873E2,6.867168E0,7.347713E1,3.6641605E1,5.8544445E1,1.4932681E1,2.6165415E1,1.0476191E1],"tree_param":{"num_deleted":"0","num_feature":"7","num_nodes":"9","size_leaf_vector":"1"}},{"base_weights":[7.764092E-3,-6.720922E-2,6.165514E-2,-8.39186E-2,-0E0,-0E0,8.600253E-2,-9.657874E-3,-0E0,-1.0752249E-2,1.7224167E-3,-0E0,3.4427713E-4,-0E0,8.981196E-3],"categories":[],"categories_nodes":[],"categories_segments":[],"categories_sizes":[],"default_left":[0,0,0,0,0,0,0,0,0,0,0,0,0,0,0],"id":33,"left_children":[1,3,5,7,9,11,13,-1,-1,-1,-1,-1,-1,-1,-1],"loss_changes":[4.9058726E-1,2.9868081E-2,9.1855794E-2,4.4218168E-2,5.2157655E-2,1.21764686E-4,1.907447E-2,0E0,0E0,0E0,0E0,0E0,0E0,0E0,0E0],"parents":[2147483647,0,0,1,1,2,2,3,3,4,4,5,5,6,6],"right_children":[2,4,6,8,10,12,14,-1,-1,-1,-1,-1,-1,-1,-1],"split_conditions":[2E0,2E0,2E0,2E0,1E0,3E0,1E0,-9.657874E-3,-0E0,-1.0752249E-2,1.7224167E-3,-0E0,3.4427713E-4,-0E0,8.981196E-3],"split_indices":[6,1,1,2,6,6,2,0,0,0,0,0,0,0,0],"split_type":[0,0,0,0,0,0,0,0,0,0,0,0,0,0,0],"sum_hessian":[1.2008248E2,4.6235073E1,7.384741E1,3.3538654E1,1.2696418E1,2.3961065E1,4.9886345E1,2.9817724E1,3.7209303E0,3.2432432E0,9.453175E0,1.4687883E1,9.273183E0,1.8604652E0,4.802588E1],"tree_param":{"num_deleted":"0","num_feature":"7","num_nodes":"15","size_leaf_vector":"1"}},{"base_weights":[2.8663797E-3,-7.087533E-2,2.6565803E-2,-1.5130191E-2,1.1500241E-2,-0E0,5.128672E-2,-4.7511677E-3,4.0715556E-3,1.4382767E-2,1.434924E-3],"categories":[],"categories_nodes":[],"categories_segments":[],"categories_sizes":[],"default_left":[0,0,0,0,0,0,0,0,0,0,0],"id":34,"left_children":[1,3,5,-1,-1,7,9,-1,-1,-1,-1],"loss_changes":[1.6499275E-1,3.4836152E-1,6.228624E-2,0E0,0E0,8.066903E-2,7.874305E-2,0E0,0E0,0E0,0E0],"parents":[2147483647,0,0,1,1,2,2,5,5,6,6],"right_children":[2,4,6,-1,-1,8,10,-1,-1,-1,-1],"split_conditions":[2E0,4E0,2E0,-1.5130191E-2,1.1500241E-2,1E0,1E0,-4.7511677E-3,4.0715556E-3,1.4382767E-2,1.434924E-3],"split_indices":[0,1,1,0,0,2,2,0,0,0,0],"split_type":[0,0,0,0,0,0,0,0,0,0,0],"sum_hessian":[1.0500872E2,1.9924543E1,8.5084175E1,1.5914518E1,4.010025E0,3.9306942E1,4.5777233E1,1.9333752E1,1.997319E1,8.372093E0,3.740514E1],"tree_param":{"num_deleted":"0","num_feature":"7","num_nodes":"11","size_leaf_vector":"1"}},{"base_weights":[1.8622108E-2,-3.1686104E-3,7.5339996E-3,-2.6251547E-2,4.8041854E-2,-5.9665977E-3,-0E0,9.353585E-3,-0E0],"categories":[],"categories_nodes":[],"categories_segments":[],"categories_sizes":[],"default_left":[0,0,0,0,0,0,0,0,0],"id":35,"left_children":[1,3,-1,5,7,-1,-1,-1,-1],"loss_changes":[1.651307E-1,7.2973624E-2,0E0,2.4609689E-2,2.773301E-2,0E0,0E0,0E0,0E0],"parents":[2147483647,0,0,1,1,3,3,4,4],"right_children":[2,4,-1,6,8,-1,-1,-1,-1],"split_conditions":[2E0,4E0,7.5339996E-3,2E0,3E0,-5.9665977E-3,-0E0,9.353585E-3,-0E0],"split_indices":[3,5,0,0,0,0,0,0,0],"split_type":[0,0,0,0,0,0,0,0,0],"sum_hessian":[1.03218636E2,6.88828E1,3.433584E1,5.454696E1,1.433584E1,1.6665453E1,3.7881504E1,6.215539E0,8.120301E0],"tree_param":{"num_deleted":"0","num_feature":"7","num_nodes":"9","size_leaf_vector":"1"}},{"base_weights":[-8.259188E-3,-4.6749208E-2,7.0358696E-3,-6.6923074E-2,-0E0,-8.415831E-3,-0E0,5.791799E-3,-6.0353526E-3],"categories":[],"categories_nodes":[],"categories_segments":[],"categories_sizes":[],"default_left":[0,0,0,0,0,0,0,0,0],"id":36,"left_children":[1,3,-1,5,7,-1,-1,-1,-1],"loss_changes":[3.3214155E-1,9.490609E-2,0E0,8.977866E-2,7.620942E-2,0E0,0E0,0E0,0E0],"parents":[2147483647,0,0,1,1,3,3,4,4],"right_children":[2,4,-1,6,8,-1,-1,-1,-1],"split_conditions":[2E0,4E0,7.0358696E-3,3E0,2E0,-8.415831E-3,-0E0,5.791799E-3,-6.0353526E-3],"split_indices":[4,5,0,0,3,0,0,0,0],"split_type":[0,0,0,0,0,0,0,0,0],"sum_hessian":[1.1157655E2,7.944623E1,3.2130325E1,5.9446228E1,2E1,4.98991E1,9.547124E0,1.2631579E1,7.3684216E0],"tree_param":{"num_deleted":"0","num_feature":"7","num_nodes":"9","size_leaf_vector":"1"}},{"base_weights":[-0E0,-8.064126E-3,8.3038015E-3,-2.021607E-2,2.9478818E-2,-2.3656734E-3,-0E0,-0E0,3.6240069E-3],"categories":[],"categories_nodes":[],"categories_segments":[],"categories_sizes":[],"default_left":[0,0,0,0,0,0,0,0,0],"id":37,"left_children":[1,3,-1,5,7,-1,-1,-1,-1],"loss_changes":[7.223066E-2,3.9689958E-2,0E0,1.1416085E-2,4.741432E-3,0E0,0E0,0E0,0E0],"parents":[2147483647,0,0,1,1,3,3,4,4],"right_children":[2,4,-1,6,8,-1,-1,-1,-1],"split_conditions":[4E0,4E0,8.3038015E-3,3E0,1E0,-2.3656734E-3,-0E0,-0E0,3.6240069E-3],"split_indices":[2,0,0,3,3,0,0,0,0],"split_type":[0,0,0,0,0,0,0,0,0],"sum_hessian":[1.0341425E2,9.484283E1,8.571428E0,8.2060875E1,1.2781955E1,8.005586E1,2.0050125E0,1.0526316E0,1.1729323E1],"tree_param":{"num_deleted":"0","num_feature":"7","num_nodes":"9","size_leaf_vector":"1"}},{"base_weights":[-9.6735597E-4,-1.7557137E-2,9.528996E-3,-3.2423396E-2,3.5310015E-3,-6.11694E-3,-1.2789079E-3],"categories":[],"categories_nodes":[],"categories_segments":[],"categories_sizes":[],"default_left":[0,0,0,0,0,0,0],"id":38,"left_children":[1,3,-1,5,-1,-1,-1],"loss_changes":[1.5459396E-1,8.436249E-2,0E0,1.4152944E-2,0E0,0E0,0E0],"parents":[2147483647,0,0,1,1,3,3],"right_children":[2,4,-1,6,-1,-1,-1],"split_conditions":[4E0,4E0,9.528996E-3,2E0,3.5310015E-3,-6.11694E-3,-1.2789079E-3],"split_indices":[2,0,0,0,0,0,0],"split_type":[0,0,0,0,0,0,0],"sum_hessian":[1.1910071E2,1.0671976E2,1.2380953E1,9.098041E1,1.5739348E1,2.5729534E1,6.525087E1],"tree_param":{"num_deleted":"0","num_feature":"7","num_nodes":"7","size_leaf_vector":"1"}},{"base_weights":[-0E0,-5.7473417E-2,3.7560746E-2,-6.83119E-3,-0E0,-0E0,5.14354E-2,1.6147917E-3,-1.6778931E-3,-0E0,7.276732E-3],"categories":[],"categories_nodes":[],"categories_segments":[],"categories_sizes":[],"default_left":[0,0,0,0,0,0,0,0,0,0,0],"id":39,"left_children":[1,3,5,-1,-1,7,9,-1,-1,-1,-1],"loss_changes":[2.3001955E-1,3.5653234E-2,3.4238458E-2,0E0,0E0,6.0990127E-3,6.1919898E-2,0E0,0E0,0E0,0E0],"parents":[2147483647,0,0,1,1,2,2,5,5,6,6],"right_children":[2,4,6,-1,-1,8,10,-1,-1,-1,-1],"split_conditions":[2E0,3E0,1E0,-6.83119E-3,-0E0,3E0,3E0,1.6147917E-3,-1.6778931E-3,-0E0,7.276732E-3],"split_indices":[6,0,3,0,0,0,0,0,0,0,0],"split_type":[0,0,0,0,0,0,0,0,0,0,0],"sum_hessian":[1.0887839E2,3.788812E1,7.0990265E1,3.416719E1,3.7209303E0,2.0658625E1,5.0331642E1,1.2482369E1,8.176255E0,1.3990791E1,3.634085E1],"tree_param":{"num_deleted":"0","num_feature":"7","num_nodes":"11","size_leaf_vector":"1"}},{"base_weights":[-0E0,-1.2218913E-2,1.0499808E-1,-3.260794E-2,6.0702953E-3,1.246811E-2,-0E0,-4.7837435E-3,5.481349E-3],"categories":[],"categories_nodes":[],"categories_segments":[],"categories_sizes":[],"default_left":[0,0,0,0,0,0,0,0,0],"id":40,"left_children":[1,3,5,7,-1,-1,-1,-1,-1],"loss_changes":[1.0967631E-1,1.3386984E-1,9.354562E-3,1.092619E-1,0E0,0E0,0E0,0E0,0E0],"parents":[2147483647,0,0,1,1,2,2,3,3],"right_children":[2,4,6,8,-1,-1,-1,-1,-1],"split_conditions":[4E0,4E0,4E0,4E0,6.0702953E-3,1.246811E-2,-0E0,-4.7837435E-3,5.481349E-3],"split_indices":[2,0,0,1,0,0,0,0,0],"split_type":[0,0,0,0,0,0,0,0,0],"sum_hessian":[1.04774414E2,9.7155365E1,7.6190476E0,8.171677E1,1.5438597E1,5.714286E0,1.9047619E0,7.48496E1,6.867168E0],"tree_param":{"num_deleted":"0","num_feature":"7","num_nodes":"9","size_leaf_vector":"1"}},{"base_weights":[1.9283668E-4,-2.6129229E-2,2.852258E-2,-3.1754892E-2,-0E0,-0E0,3.0619598E-3,-3.5470834E-3,-0E0],"categories":[],"categories_nodes":[],"categories_segments":[],"categories_sizes":[],"default_left":[0,0,0,0,0,0,0,0,0],"id":41,"left_children":[1,3,5,7,-1,-1,-1,-1,-1],"loss_changes":[8.808889E-2,1.2001269E-2,2.861742E-3,9.301823E-3,0E0,0E0,0E0,0E0,0E0],"parents":[2147483647,0,0,1,1,2,2,3,3],"right_children":[2,4,6,8,-1,-1,-1,-1,-1],"split_conditions":[2E0,3E0,1E0,2E0,-0E0,-0E0,3.0619598E-3,-3.5470834E-3,-0E0],"split_indices":[6,0,2,2,0,0,0,0,0],"split_type":[0,0,0,0,0,0,0,0,0],"sum_hessian":[1.14525345E2,5.0257698E1,6.426765E1,4.5606537E1,4.651163E0,5.5813956E0,5.8686253E1,4.374607E1,1.8604652E0],"tree_param":{"num_deleted":"0","num_feature":"7","num_nodes":"9","size_leaf_vector":"1"}},{"base_weights":[-0E0,-3.263453E-2,3.4119535E-2,-6.324169E-2,2.6578238E-2,7.1981855E-2,-0E0,-9.385293E-3,-0E0,-0E0,7.118681E-3,-0E0,8.569996E-3,-8.4129063E-4,5.631115E-3],"categories":[],"categories_nodes":[],"categories_segments":[],"categories_sizes":[],"default_left":[0,0,0,0,0,0,0,0,0,0,0,0,0,0,0],"id":42,"left_children":[1,3,5,7,9,11,13,-1,-1,-1,-1,-1,-1,-1,-1],"loss_changes":[1.22623436E-1,1.14472784E-1,4.7685444E-2,6.297043E-2,1.0435037E-2,3.998588E-2,3.5590164E-2,0E0,0E0,0E0,0E0,0E0,0E0,0E0,0E0],"parents":[2147483647,0,0,1,1,2,2,3,3,4,4,5,5,6,6],"right_children":[2,4,6,8,10,12,14,-1,-1,-1,-1,-1,-1,-1,-1],"split_conditions":[2E0,1E0,1E0,2E0,2E0,1E0,3E0,-9.385293E-3,-0E0,-0E0,7.118681E-3,-0E0,8.569996E-3,-8.4129063E-4,5.631115E-3],"split_indices":[1,3,3,6,4,6,3,0,0,0,0,0,0,0,0],"split_type":[0,0,0,0,0,0,0,0,0,0,0,0,0,0,0],"sum_hessian":[1.0777191E2,5.112073E1,5.6651184E1,3.92226E1,1.189813E1,2.1156158E1,3.549502E1,2.441232E1,1.4810282E1,9.040987E0,2.857143E0,1.081081E0,2.0075079E1,2.5870964E1,9.624061E0],"tree_param":{"num_deleted":"0","num_feature":"7","num_nodes":"15","size_leaf_vector":"1"}},{"base_weights":[-4.959693E-3,-5.284862E-3,-0E0,-1.8933015E-2,1.982881E-2,-6.598513E-3,-0E0,7.7016763E-3,-8.9396856E-4],"categories":[],"categories_nodes":[],"categories_segments":[],"categories_sizes":[],"default_left":[0,0,0,0,0,0,0,0,0],"id":43,"left_children":[1,-1,3,5,7,-1,-1,-1,-1],"loss_changes":[3.9293528E-2,0E0,3.731682E-2,6.924442E-2,1.24359295E-1,0E0,0E0,0E0,0E0],"parents":[2147483647,0,0,2,2,3,3,4,4],"right_children":[2,-1,4,6,8,-1,-1,-1,-1],"split_conditions":[1E0,-5.284862E-3,2E0,2E0,2E0,-6.598513E-3,-0E0,7.7016763E-3,-8.9396856E-4],"split_indices":[6,0,1,6,3,0,0,0,0],"split_type":[0,0,0,0,0,0,0,0,0],"sum_hessian":[1.1088016E2,1.4054053E1,9.68261E1,4.3345417E1,5.3480686E1,1.8554367E1,2.4791048E1,2.3154871E1,3.0325815E1],"tree_param":{"num_deleted":"0","num_feature":"7","num_nodes":"9","size_leaf_vector":"1"}},{"base_weights":[2.6567534E-2,-0E0,5.934235E-2,-3.075707E-2,5.5916863E-3,1.0686243E-1,1.9306965E-2,-3.4051135E-3,-0E0,-0E0,1.3672644E-2,-0E0,3.9484184E-3],"categories":[],"categories_nodes":[],"categories_segments":[],"categories_sizes":[],"default_left":[0,0,0,0,0,0,0,0,0,0,0,0,0],"id":44,"left_children":[1,3,5,7,-1,9,11,-1,-1,-1,-1,-1,-1],"loss_changes":[1.1693515E-1,9.1554165E-2,4.0611655E-2,2.715081E-3,0E0,1.169391E-2,2.711405E-2,0E0,0E0,0E0,0E0,0E0,0E0],"parents":[2147483647,0,0,1,1,2,2,3,3,5,5,6,6],"right_children":[2,4,6,8,-1,10,12,-1,-1,-1,-1,-1,-1],"split_conditions":[2E0,1E0,1E0,4E0,5.5916863E-3,2E0,3E0,-3.4051135E-3,-0E0,-0E0,1.3672644E-2,-0E0,3.9484184E-3],"split_indices":[1,3,3,5,0,0,0,0,0,0,0,0,0],"split_type":[0,0,0,0,0,0,0,0,0,0,0,0,0],"sum_hessian":[1.1067871E2,5.6088493E1,5.4590218E1,4.030368E1,1.5784811E1,1.848786E1,3.6102356E1,3.5040524E1,5.263158E0,6.9578724E0,1.1529988E1,1.0839197E1,2.5263159E1],"tree_param":{"num_deleted":"0","num_feature":"7","num_nodes":"13","size_leaf_vector":"1"}},{"base_weights":[1.9301534E-2,-4.326949E-3,3.552912E-2,-0E0,6.301716E-3],"categories":[],"categories_nodes":[],"categories_segments":[],"categories_sizes":[],"default_left":[0,0,0,0,0],"id":45,"left_children":[1,-1,3,-1,-1],"loss_changes":[1.1694456E-1,0E0,1.1290291E-1,0E0,0E0],"parents":[2147483647,0,0,2,2],"right_children":[2,-1,4,-1,-1],"split_conditions":[1E0,-4.326949E-3,2E0,-0E0,6.301716E-3],"split_indices":[6,0,1,0,0],"split_type":[0,0,0,0,0],"sum_hessian":[1.164711E2,1.7297297E1,9.91738E1,3.9900726E1,5.9273075E1],"tree_param":{"num_deleted":"0","num_feature":"7","num_nodes":"5","size_leaf_vector":"1"}},{"base_weights":[-5.511752E-3,-1.9290768E-2,1.0749824E-1,-3.113419E-2,2.9612377E-3,1.3199637E-2,-0E0,-3.1275282E-4,-6.0564405E-3],"categories":[],"categories_nodes":[],"categories_segments":[],"categories_sizes":[],"default_left":[0,0,0,0,0,0,0,0,0],"id":46,"left_children":[1,3,5,7,-1,-1,-1,-1,-1],"loss_changes":[1.3866518E-1,6.4362645E-2,1.8559016E-2,4.6960413E-2,0E0,0E0,0E0,0E0,0E0],"parents":[2147483647,0,0,1,1,2,2,3,3],"right_children":[2,4,6,8,-1,-1,-1,-1,-1],"split_conditions":[4E0,3E0,3E0,1E0,2.9612377E-3,1.3199637E-2,-0E0,-3.1275282E-4,-6.0564405E-3],"split_indices":[1,4,3,3,0,0,0,0,0],"split_type":[0,0,0,0,0,0,0,0,0],"sum_hessian":[1.1504103E2,1.0722148E2,7.819549E0,9.484053E1,1.2380953E1,5.9147873E0,1.9047619E0,5.786761E1,3.6972916E1],"tree_param":{"num_deleted":"0","num_feature":"7","num_nodes":"9","size_leaf_vector":"1"}},{"base_weights":[-1.6897839E-3,-4.087331E-2,1.42761385E-2,-0E0,-1.4048967E-2,2.5916219E-2,-0E0,-9.2198857E-4,-0E0,-0E0,6.6805254E-3,-2.842168E-4,6.989156E-4],"categories":[],"categories_nodes":[],"categories_segments":[],"categories_sizes":[],"default_left":[0,0,0,0,0,0,0,0,0,0,0,0,0],"id":47,"left_children":[1,3,5,7,-1,9,11,-1,-1,-1,-1,-1,-1],"loss_changes":[9.145723E-2,1.2431495E-1,1.247712E-2,1.1877905E-3,0E0,5.8747664E-2,8.9935365E-4,0E0,0E0,0E0,0E0,0E0,0E0],"parents":[2147483647,0,0,1,1,2,2,3,3,5,5,6,6],"right_children":[2,4,6,8,-1,10,12,-1,-1,-1,-1,-1,-1],"split_conditions":[2E0,1E0,2E0,1E0,-1.4048967E-2,2E0,3E0,-9.2198857E-4,-0E0,-0E0,6.6805254E-3,-2.842168E-4,6.989156E-4],"split_indices":[6,2,4,6,0,2,4,0,0,0,0,0,0],"split_type":[0,0,0,0,0,0,0,0,0,0,0,0,0],"sum_hessian":[1.2300094E2,4.422376E1,7.8777176E1,3.5097424E1,9.126335E0,4.1784695E1,3.699248E1,1.2972973E1,2.212445E1,2.3182375E1,1.860232E1,2.365915E1,1.3333333E1],"tree_param":{"num_deleted":"0","num_feature":"7","num_nodes":"13","size_leaf_vector":"1"}},{"base_weights":[1.5432278E-2,-1.2835081E-2,5.1737677E-2,-4.0336385E-2,2.6885347E-2,1.1264871E-1,-0E0,-4.0937276E-3,-0E0,3.5565167E-3,-0E0,1.206585E-2,-0E0,-2.464296E-3,3.0886696E-3],"categories":[],"categories_nodes":[],"categories_segments":[],"categories_sizes":[],"default_left":[0,0,0,0,0,0,0,0,0,0,0,0,0,0,0],"id":48,"left_children":[1,3,5,7,9,11,13,-1,-1,-1,-1,-1,-1,-1,-1],"loss_changes":[1.339331E-1,6.83418E-2,1.5749706E-1,2.1778047E-4,3.3831066E-3,1.7732114E-2,2.7141672E-2,0E0,0E0,0E0,0E0,0E0,0E0,0E0,0E0],"parents":[2147483647,0,0,1,1,2,2,3,3,4,4,5,5,6,6],"right_children":[2,4,6,8,10,12,14,-1,-1,-1,-1,-1,-1,-1,-1],"split_conditions":[2E0,3E0,3E0,2E0,2E0,3E0,4E0,-4.0937276E-3,-0E0,3.5565167E-3,-0E0,1.206585E-2,-0E0,-2.464296E-3,3.0886696E-3],"split_indices":[1,0,0,3,2,3,0,0,0,0,0,0,0,0,0],"split_type":[0,0,0,0,0,0,0,0,0,0,0,0,0,0,0],"sum_hessian":[1.09905624E2,5.4413628E1,5.5492E1,3.9581196E1,1.483243E1,2.3327868E1,3.216413E1,3.8528564E1,1.0526316E0,1.0722155E1,4.1102757E0,2.1423105E1,1.9047619E0,1.4720523E1,1.744361E1],"tree_param":{"num_deleted":"0","num_feature":"7","num_nodes":"15","size_leaf_vector":"1"}},{"base_weights":[-2.2240205E-2,-5.8282137E-2,-0E0,-7.591061E-3,-0E0,-5.194445E-3,3.8172433E-3,7.515853E-3,-0E0,-1.7344591E-3,-0E0],"categories":[],"categories_nodes":[],"categories_segments":[],"categories_sizes":[],"default_left":[0,0,0,0,0,0,0,0,0,0,0],"id":49,"left_children":[1,3,5,-1,7,9,-1,-1,-1,-1,-1],"loss_changes":[8.3156236E-2,6.8463385E-2,1.178246E-2,0E0,2.1412909E-2,1.2647136E-2,0E0,0E0,0E0,0E0,0E0],"parents":[2147483647,0,0,1,1,2,2,4,4,5,5],"right_children":[2,4,6,-1,8,10,-1,-1,-1,-1,-1],"split_conditions":[2E0,3E0,4E0,-7.591061E-3,2E0,4E0,3.8172433E-3,7.515853E-3,-0E0,-1.7344591E-3,-0E0],"split_indices":[6,0,1,0,1,0,0,0,0,0,0],"split_type":[0,0,0,0,0,0,0,0,0,0,0],"sum_hessian":[1.0743783E2,3.9270897E1,6.816693E1,3.4619736E1,4.651163E0,6.2252144E1,5.9147873E0,2.7906978E0,1.8604652E0,4.6713295E1,1.5538847E1],"tree_param":{"num_deleted":"0","num_feature":"7","num_nodes":"11","size_leaf_vector":"1"}},{"base_weights":[-0E0,-5.494124E-3,4.2674043E-3,-1.3498509E-2,3.5128563E-3,-0E0,-2.2974843E-3],"categories":[],"categories_nodes":[],"categories_segments":[],"categories_sizes":[],"default_left":[0,0,0,0,0,0,0],"id":50,"left_children":[1,3,-1,5,-1,-1,-1],"loss_changes":[2.244195E-2,2.4962664E-2,0E0,1.4251493E-2,0E0,0E0,0E0],"parents":[2147483647,0,0,1,1,3,3],"right_children":[2,4,-1,6,-1,-1,-1],"split_conditions":[4E0,4E0,4.2674043E-3,1E0,3.5128563E-3,-0E0,-2.2974843E-3],"split_indices":[2,1,0,2,0,0,0],"split_type":[0,0,0,0,0,0,0],"sum_hessian":[1.1709664E2,1.0757283E2,9.523809E0,1.0070566E2,6.867168E0,3.9597736E1,6.1107925E1],"tree_param":{"num_deleted":"0","num_feature":"7","num_nodes":"7","size_leaf_vector":"1"}},{"base_weights":[-7.22792E-3,-3.900579E-3,7.01434E-3,2.9222956E-2,-2.0276923E-3,-0E0,5.9017977E-3,-2.8220622E-3,4.4866253E-4],"categories":[],"categories_nodes":[],"categories_segments":[],"categories_sizes":[],"default_left":[0,0,0,0,0,0,0,0,0],"id":51,"left_children":[1,-1,3,5,7,-1,-1,-1,-1],"loss_changes":[6.765409E-2,0E0,2.7388593E-2,1.9484185E-2,1.7715033E-2,0E0,0E0,0E0,0E0],"parents":[2147483647,0,0,2,2,3,3,4,4],"right_children":[2,-1,4,6,8,-1,-1,-1,-1],"split_conditions":[2E0,-3.900579E-3,2E0,2E0,3E0,-0E0,5.9017977E-3,-2.8220622E-3,4.4866253E-4],"split_indices":[6,0,3,2,4,0,0,0,0],"split_type":[0,0,0,0,0,0,0,0,0],"sum_hessian":[1.1253523E2,4.515399E1,6.738125E1,3.484992E1,3.253133E1,2.1466457E1,1.3383459E1,2.1102757E1,1.1428572E1],"tree_param":{"num_deleted":"0","num_feature":"7","num_nodes":"9","size_leaf_vector":"1"}},{"base_weights":[-0E0,-2.580432E-2,2.2176715E-2,-3.5913635E-2,-0E0,6.058475E-3,-0E0,-4.468401E-3,-0E0,7.995377E-3,-7.1274163E-3,-4.4063662E-4,2.8880893E-3],"categories":[],"categories_nodes":[],"categories_segments":[],"categories_sizes":[],"default_left":[0,0,0,0,0,0,0,0,0,0,0,0,0],"id":52,"left_children":[1,3,5,7,9,-1,11,-1,-1,-1,-1,-1,-1],"loss_changes":[6.7276135E-2,2.6002154E-2,2.8202321E-2,3.4428284E-2,6.7248225E-2,0E0,1.2477124E-2,0E0,0E0,0E0,0E0,0E0,0E0],"parents":[2147483647,0,0,1,1,2,2,3,3,4,4,6,6],"right_children":[2,4,6,8,10,-1,12,-1,-1,-1,-1,-1,-1],"split_conditions":[1E0,4E0,4E0,2E0,3E0,6.058475E-3,4E0,-4.468401E-3,-0E0,7.995377E-3,-7.1274163E-3,-4.4063662E-4,2.8880893E-3],"split_indices":[3,5,5,4,0,0,0,0,0,0,0,0,0],"split_type":[0,0,0,0,0,0,0,0,0,0,0,0,0],"sum_hessian":[1.1318687E2,6.005192E1,5.3134945E1,5.0678486E1,9.373434E0,1.3936948E1,3.9197994E1,4.9625854E1,1.0526316E0,6.215539E0,3.1578948E0,2.5864662E1,1.3333333E1],"tree_param":{"num_deleted":"0","num_feature":"7","num_nodes":"13","size_leaf_vector":"1"}},{"base_weights":[4.1139135E-3,-9.466838E-3,1.2484967E-2,-2.765611E-3,-0E0,4.4205193E-3,4.5915335E-2,1.3868334E-3,-0E0,5.5872775E-3,-0E0],"categories":[],"categories_nodes":[],"categories_segments":[],"categories_sizes":[],"default_left":[0,0,0,0,0,0,0,0,0,0,0],"id":53,"left_children":[1,3,5,-1,-1,7,9,-1,-1,-1,-1],"loss_changes":[1.5204888E-2,1.1326642E-2,8.060364E-4,0E0,0E0,1.06321415E-2,8.590324E-4,0E0,0E0,0E0,0E0],"parents":[2147483647,0,0,1,1,2,2,5,5,6,6],"right_children":[2,4,6,-1,-1,8,10,-1,-1,-1,-1],"split_conditions":[2E0,1E0,3E0,-2.765611E-3,-0E0,2E0,3E0,1.3868334E-3,-0E0,5.5872775E-3,-0E0],"split_indices":[0,3,3,0,0,3,4,0,0,0,0],"split_type":[0,0,0,0,0,0,0,0,0,0,0],"sum_hessian":[1.18431816E2,2.2335442E1,9.609637E1,1.6543055E1,5.792388E0,9.038209E1,5.714286E0,6.356504E1,2.6817043E1,3.8095238E0,1.9047619E0],"tree_param":{"num_deleted":"0","num_feature":"7","num_nodes":"11","size_leaf_vector":"1"}},{"base_weights":[1.9457731E-3,-2.5738536E-3,1.162089E-2,1.9512163E-3,4.3579515E-2,-0E0,1.8264184E-3,5.9495396E-3,-0E0],"categories":[],"categories_nodes":[],"categories_segments":[],"categories_sizes":[],"default_left":[0,0,0,0,0,0,0,0,0],"id":54,"left_children":[1,-1,3,5,7,-1,-1,-1,-1],"loss_changes":[2.3448803E-2,0E0,7.32534E-3,8.108056E-3,7.3156394E-3,0E0,0E0,0E0,0E0],"parents":[2147483647,0,0,2,2,3,3,4,4],"right_children":[2,-1,4,6,8,-1,-1,-1,-1],"split_conditions":[1E0,-2.5738536E-3,3E0,2E0,3E0,-0E0,1.8264184E-3,5.9495396E-3,-0E0],"split_indices":[6,0,3,4,4,0,0,0,0],"split_type":[0,0,0,0,0,0,0,0,0],"sum_hessian":[1.1178194E2,1.5135135E1,9.6646805E1,8.702274E1,9.624061E0,6.2711967E1,2.4310778E1,6.766917E0,2.857143E0],"tree_param":{"num_deleted":"0","num_feature":"7","num_nodes":"9","size_leaf_vector":"1"}},{"base_weights":[-6.127491E-4,-1.9855764E-2,1.2750137E-2,-2.7679095E-2,-0E0,4.2898078E-3,-0E0,-3.302872E-3,-0E0,-2.332335E-3,3.1111592E-3],"categories":[],"categories_nodes":[],"categories_segments":[],"categories_sizes":[],"default_left":[0,0,0,0,0,0,0,0,0,0,0],"id":55,"left_children":[1,3,5,7,-1,-1,9,-1,-1,-1,-1],"loss_changes":[3.3109367E-2,2.1603284E-2,3.0935932E-2,1.7294373E-2,0E0,0E0,2.2051392E-2,0E0,0E0,0E0,0E0],"parents":[2147483647,0,0,1,1,2,2,3,3,6,6],"right_children":[2,4,6,8,-1,-1,10,-1,-1,-1,-1],"split_conditions":[4E0,2E0,2E0,2E0,-0E0,4.2898078E-3,3E0,-3.302872E-3,-0E0,-2.332335E-3,3.1111592E-3],"split_indices":[5,4,3,3,0,0,3,0,0,0,0],"split_type":[0,0,0,0,0,0,0,0,0,0,0],"sum_hessian":[1.1295792E2,6.1429092E1,5.1528824E1,5.9323826E1,2.1052632E0,2.0451128E1,3.1077694E1,5.7218563E1,2.1052632E0,2.2506266E1,8.571428E0],"tree_param":{"num_deleted":"0","num_feature":"7","num_nodes":"11","size_leaf_vector":"1"}},{"base_weights":[-5.0685825E-3,-1.7452572E-2,5.9466716E-3,-2.2794293E-2,-0E0,-0E0,-3.4916017E-3],"categories":[],"categories_nodes":[],"categories_segments":[],"categories_sizes":[],"default_left":[0,0,0,0,0,0,0],"id":56,"left_children":[1,3,-1,5,-1,-1,-1],"loss_changes":[6.34124E-2,1.7361209E-2,0E0,1.906782E-2,0E0,0E0,0E0],"parents":[2147483647,0,0,1,1,3,3],"right_children":[2,4,-1,6,-1,-1,-1],"split_conditions":[4E0,3E0,5.9466716E-3,1E0,-0E0,-0E0,-3.4916017E-3],"split_indices":[2,3,0,2,0,0,0],"split_type":[0,0,0,0,0,0,0],"sum_hessian":[1.03330795E2,9.380699E1,9.523809E0,8.7992455E1,5.8145366E0,3.542426E1,5.256819E1],"tree_param":{"num_deleted":"0","num_feature":"7","num_nodes":"7","size_leaf_vector":"1"}},{"base_weights":[-1.5197808E-2,-2.9901752E-2,9.4214035E-3,-3.815352E-2,-0E0,-4.330384E-3,-0E0],"categories":[],"categories_nodes":[],"categories_segments":[],"categories_sizes":[],"default_left":[0,0,0,0,0,0,0],"id":57,"left_children":[1,3,-1,5,-1,-1,-1],"loss_changes":[1.4322388E-1,4.053858E-2,0E0,2.0645112E-2,0E0,0E0,0E0],"parents":[2147483647,0,0,1,1,3,3],"right_children":[2,4,-1,6,-1,-1,-1],"split_conditions":[4E0,3E0,9.4214035E-3,4E0,-0E0,-4.330384E-3,-0E0],"split_indices":[1,4,0,0,0,0,0],"split_type":[0,0,0,0,0,0,0],"sum_hessian":[1.06262794E2,9.8342995E1,7.9198E0,8.7866806E1,1.0476191E1,7.899463E1,8.872181E0],"tree_param":{"num_deleted":"0","num_feature":"7","num_nodes":"7","size_leaf_vector":"1"}},{"base_weights":[9.966079E-3,-5.3028687E-4,2.6917515E-2,4.5518573E-2,-0E0,-0E0,8.40163E-3,2.7209127E-3,-0E0],"categories":[],"categories_nodes":[],"categories_segments":[],"categories_sizes":[],"default_left":[0,0,0,0,0,0,0,0,0],"id":58,"left_children":[1,-1,3,5,7,-1,-1,-1,-1],"loss_changes":[4.179527E-2,0E0,1.4657371E-2,4.9138024E-2,7.531394E-3,0E0,0E0,0E0,0E0],"parents":[2147483647,0,0,2,2,3,3,4,4],"right_children":[2,-1,4,6,8,-1,-1,-1,-1],"split_conditions":[2E0,-5.3028687E-4,2E0,2E0,2E0,-0E0,8.40163E-3,2.7209127E-3,-0E0],"split_indices":[6,0,4,1,1,0,0,0,0],"split_type":[0,0,0,0,0,0,0,0,0],"sum_hessian":[1.1817142E2,4.7014454E1,7.115697E1,3.1307339E1,3.9849625E1,1.5862913E1,1.5444426E1,9.172933E0,3.0676691E1],"tree_param":{"num_deleted":"0","num_feature":"7","num_nodes":"9","size_leaf_vector":"1"}},{"base_weights":[1.2072764E-3,-0E0,3.988231E-2,-4.7424887E-3,8.079853E-3,9.363386E-3,-0E0,1.5763805E-3,-0E0],"categories":[],"categories_nodes":[],"categories_segments":[],"categories_sizes":[],"default_left":[0,0,0,0,0,0,0,0,0],"id":59,"left_children":[1,3,5,-1,7,-1,-1,-1,-1],"loss_changes":[1.5378823E-2,5.0218552E-2,1.1681552E-2,0E0,7.6438794E-3,0E0,0E0,0E0,0E0],"parents":[2147483647,0,0,1,1,2,2,4,4],"right_children":[2,4,6,-1,8,-1,-1,-1,-1],"split_conditions":[4E0,2E0,1E0,-4.7424887E-3,2E0,9.363386E-3,-0E0,1.5763805E-3,-0E0],"split_indices":[1,0,4,0,4,0,0,0,0],"split_type":[0,0,0,0,0,0,0,0,0],"sum_hessian":[1.1179243E2,1.030205E2,8.77193E0,1.8856064E1,8.416444E1,2.1052632E0,6.6666665E0,5.2134357E1,3.2030075E1],"tree_param":{"num_deleted":"0","num_feature":"7","num_nodes":"9","size_leaf_vector":"1"}},{"base_weights":[-0E0,-7.489756E-3,2.588418E-2,5.2480204E-3,-2.7802104E-2,-0E0,3.1015571E-2,-0E0,2.3884836E-3,-4.716122E-3,3.5709676E-3,3.4702055E-3,-0E0],"categories":[],"categories_nodes":[],"categories_segments":[],"categories_sizes":[],"default_left":[0,0,0,0,0,0,0,0,0,0,0,0,0],"id":60,"left_children":[1,3,5,7,9,-1,11,-1,-1,-1,-1,-1,-1],"loss_changes":[1.8358123E-2,3.6158703E-2,4.6505453E-3,1.5682183E-2,7.1509644E-2,0E0,2.1502152E-3,0E0,0E0,0E0,0E0,0E0,0E0],"parents":[2147483647,0,0,1,1,2,2,3,3,4,4,6,6],"right_children":[2,4,6,8,10,-1,12,-1,-1,-1,-1,-1,-1],"split_conditions":[4E0,1E0,1E0,2E0,4E0,-0E0,4E0,-0E0,2.3884836E-3,-4.716122E-3,3.5709676E-3,3.4702055E-3,-0E0],"split_indices":[0,2,3,0,2,0,2,0,0,0,0,0,0],"split_type":[0,0,0,0,0,0,0,0,0,0,0,0,0],"sum_hessian":[1.1299896E2,9.4602974E1,1.839599E1,4.3469517E1,5.113346E1,1.0526316E0,1.7343359E1,1.4833438E1,2.8636078E1,4.5419174E1,5.714286E0,1.5438597E1,1.9047619E0],"tree_param":{"num_deleted":"0","num_feature":"7","num_nodes":"13","size_leaf_vector":"1"}},{"base_weights":[-0E0,-8.563183E-3,8.322184E-3,-1.5855834E-2,1.8397773E-2,-1.9907055E-3,-0E0,2.3253623E-3,-0E0],"categories":[],"categories_nodes":[],"categories_segments":[],"categories_sizes":[],"default_left":[0,0,0,0,0,0,0,0,0],"id":61,"left_children":[1,3,-1,5,7,-1,-1,-1,-1],"loss_changes":[7.059817E-2,2.267211E-2,0E0,1.3645913E-2,7.761477E-4,0E0,0E0,0E0,0E0],"parents":[2147483647,0,0,1,1,3,3,4,4],"right_children":[2,4,-1,6,8,-1,-1,-1,-1],"split_conditions":[4E0,4E0,8.322184E-3,4E0,4E0,-1.9907055E-3,-0E0,2.3253623E-3,-0E0],"split_indices":[1,4,0,2,2,0,0,0,0],"split_type":[0,0,0,0,0,0,0,0,0],"sum_hessian":[1.27211464E2,1.19291664E2,7.9198E0,1.0881547E2,1.0476191E1,1.0310119E2,5.714286E0,7.6190476E0,2.857143E0],"tree_param":{"num_deleted":"0","num_feature":"7","num_nodes":"9","size_leaf_vector":"1"}},{"base_weights":[1.1069058E-2,2.406589E-2,-0E0,-0E0,3.746728E-2,-6.4632766E-2,1.311421E-2,4.7010197E-3,-0E0,-1.2885602E-2,-0E0,-0E0,2.4189055E-3],"categories":[],"categories_nodes":[],"categories_segments":[],"categories_sizes":[],"default_left":[0,0,0,0,0,0,0,0,0,0,0,0,0],"id":62,"left_children":[1,3,5,-1,7,9,11,-1,-1,-1,-1,-1,-1],"loss_changes":[1.0812827E-2,1.6552093E-2,4.9021762E-2,0E0,1.497018E-2,6.7938775E-2,1.8553901E-4,0E0,0E0,0E0,0E0,0E0,0E0],"parents":[2147483647,0,0,1,1,2,2,4,4,5,5,6,6],"right_children":[2,4,6,-1,8,10,12,-1,-1,-1,-1,-1,-1],"split_conditions":[1E0,1E0,2E0,-0E0,1E0,2E0,4E0,4.7010197E-3,-0E0,-1.2885602E-2,-0E0,-0E0,2.4189055E-3],"split_indices":[2,6,6,0,4,2,0,0,0,0,0,0,0],"split_type":[0,0,0,0,0,0,0,0,0,0,0,0,0],"sum_hessian":[1.1002172E2,4.1156506E1,6.886522E1,1.2972973E1,2.8183533E1,8.196103E0,6.0669117E1,2.4311754E1,3.8717787E0,5.405405E0,2.7906978E0,4.3225506E1,1.744361E1],"tree_param":{"num_deleted":"0","num_feature":"7","num_nodes":"13","size_leaf_vector":"1"}},{"base_weights":[1.7607011E-3,-0E0,1.2135173E-2,-8.098158E-3,3.6899787E-3,4.5052033E-2,-0E0,-3.0768819E-3,9.3198195E-4,2.5248325E-3,-0E0,5.518414E-3,-0E0],"categories":[],"categories_nodes":[],"categories_segments":[],"categories_sizes":[],"default_left":[0,0,0,0,0,0,0,0,0,0,0,0,0],"id":63,"left_children":[1,3,5,7,9,11,-1,-1,-1,-1,-1,-1,-1],"loss_changes":[6.5363427E-3,3.609664E-3,1.8245097E-2,3.1622477E-2,5.350946E-3,9.366028E-3,0E0,0E0,0E0,0E0,0E0,0E0,0E0],"parents":[2147483647,0,0,1,1,2,2,3,3,4,4,5,5],"right_children":[2,4,6,8,10,12,-1,-1,-1,-1,-1,-1,-1],"split_conditions":[4E0,3E0,2E0,2E0,2E0,4E0,-0E0,-3.0768819E-3,9.3198195E-4,2.5248325E-3,-0E0,5.518414E-3,-0E0],"split_indices":[5,0,1,1,1,0,0,0,0,0,0,0,0],"split_type":[0,0,0,0,0,0,0,0,0,0,0,0,0],"sum_hessian":[1.0961584E2,6.390155E1,4.5714287E1,5.1196533E1,1.2705019E1,1.1378447E1,3.433584E1,3.4383537E1,1.6812994E1,7.686659E0,5.01836E0,1.0325815E1,1.0526316E0],"tree_param":{"num_deleted":"0","num_feature":"7","num_nodes":"13","size_leaf_vector":"1"}},{"base_weights":[1.4384189E-2,2.4950484E-2,-0E0,-0E0,3.7286375E-2,1.8418053E-3,-8.804446E-3,-0E0,5.3074006E-3,-5.0471937E-3,-0E0],"categories":[],"categories_nodes":[],"categories_segments":[],"categories_sizes":[],"default_left":[0,0,0,0,0,0,0,0,0,0,0],"id":64,"left_children":[1,3,5,-1,7,-1,9,-1,-1,-1,-1],"loss_changes":[1.7967025E-2,3.0041073E-2,7.631832E-3,0E0,1.6538106E-2,0E0,1.5056305E-2,0E0,0E0,0E0,0E0],"parents":[2147483647,0,0,1,1,2,2,4,4,6,6],"right_children":[2,4,6,-1,8,-1,10,-1,-1,-1,-1],"split_conditions":[3E0,1E0,2E0,-0E0,2E0,1.8418053E-3,3E0,-0E0,5.3074006E-3,-5.0471937E-3,-0E0],"split_indices":[0,6,1,0,0,0,6,0,0,0,0],"split_type":[0,0,0,0,0,0,0,0,0,0,0],"sum_hessian":[1.1235452E2,6.553631E1,4.681821E1,1.5135135E1,5.0401176E1,1.3701696E1,3.3116512E1,2.0160679E1,3.0240498E1,5.9485927E0,2.716792E1],"tree_param":{"num_deleted":"0","num_feature":"7","num_nodes":"11","size_leaf_vector":"1"}},{"base_weights":[9.390652E-3,-0E0,3.3902165E-2,3.51832E-3,-1.1444217E-2,-0E0,4.234444E-3,2.3424316E-3,-5.0714514E-3,-7.0166634E-3,5.546737E-4],"categories":[],"categories_nodes":[],"categories_segments":[],"categories_sizes":[],"default_left":[0,0,0,0,0,0,0,0,0,0,0],"id":65,"left_children":[1,3,5,7,9,-1,-1,-1,-1,-1,-1],"loss_changes":[3.316643E-2,4.7866926E-3,1.7500851E-2,3.6717393E-2,6.4869374E-2,0E0,0E0,0E0,0E0,0E0,0E0],"parents":[2147483647,0,0,1,1,2,2,3,3,4,4],"right_children":[2,4,6,8,10,-1,-1,-1,-1,-1,-1],"split_conditions":[2E0,1E0,2E0,1E0,1E0,-0E0,4.234444E-3,2.3424316E-3,-5.0714514E-3,-7.0166634E-3,5.546737E-4],"split_indices":[2,2,6,3,3,0,0,0,0,0,0],"split_type":[0,0,0,0,0,0,0,0,0,0,0],"sum_hessian":[1.1234639E2,7.579338E1,3.6553013E1,4.45506E1,3.1242785E1,3.7209303E0,3.283208E1,3.9748585E1,4.8020115E0,1.2912766E1,1.8330017E1],"tree_param":{"num_deleted":"0","num_feature":"7","num_nodes":"11","size_leaf_vector":"1"}},{"base_weights":[-9.283841E-3,-1.9823482E-2,5.98784E-2,-3.0600313E-2,3.250262E-2,7.945299E-3,-0E0,-3.8974143E-3,-0E0,4.929156E-3,-0E0],"categories":[],"categories_nodes":[],"categories_segments":[],"categories_sizes":[],"default_left":[0,0,0,0,0,0,0,0,0,0,0],"id":66,"left_children":[1,3,5,7,9,-1,-1,-1,-1,-1,-1],"loss_changes":[6.878864E-2,6.28299E-2,1.490061E-2,4.3630496E-2,6.641361E-3,0E0,0E0,0E0,0E0,0E0,0E0],"parents":[2147483647,0,0,1,1,2,2,3,3,4,4],"right_children":[2,4,6,8,10,-1,-1,-1,-1,-1,-1],"split_conditions":[4E0,3E0,3E0,4E0,3E0,7.945299E-3,-0E0,-3.8974143E-3,-0E0,4.929156E-3,-0E0],"split_indices":[1,3,4,0,4,0,0,0,0,0,0],"split_type":[0,0,0,0,0,0,0,0,0,0,0],"sum_hessian":[1.1921356E2,1.1034138E2,8.872181E0,9.976494E1,1.0576441E1,6.9674187E0,1.9047619E0,8.9840126E1,9.924812E0,6.766917E0,3.8095238E0],"tree_param":{"num_deleted":"0","num_feature":"7","num_nodes":"11","size_leaf_vector":"1"}},{"base_weights":[-0E0,-9.704054E-3,1.4809619E-2,-1.4602935E-2,-0E0,3.8595882E-3,-0E0,-0E0,-3.7656182E-3,-1.9007077E-3,1.954125E-3],"categories":[],"categories_nodes":[],"categories_segments":[],"categories_sizes":[],"default_left":[0,0,0,0,0,0,0,0,0,0,0],"id":67,"left_children":[1,3,5,7,-1,-1,9,-1,-1,-1,-1],"loss_changes":[1.6603753E-2,6.9402475E-3,1.6368855E-2,2.03781E-2,0E0,0E0,1.0069039E-2,0E0,0E0,0E0,0E0],"parents":[2147483647,0,0,1,1,2,2,3,3,6,6],"right_children":[2,4,6,8,-1,-1,10,-1,-1,-1,-1],"split_conditions":[2E0,4E0,3E0,1E0,-0E0,3.8595882E-3,4E0,-0E0,-3.7656182E-3,-1.9007077E-3,1.954125E-3],"split_indices":[2,0,6,2,0,0,2,0,0,0,0],"split_type":[0,0,0,0,0,0,0,0,0,0,0],"sum_hessian":[1.1797627E2,7.658325E1,4.1393017E1,6.580631E1,1.0776942E1,1.623011E1,2.5162907E1,4.2388435E1,2.341788E1,1.3734336E1,1.1428572E1],"tree_param":{"num_deleted":"0","num_feature":"7","num_nodes":"11","size_leaf_vector":"1"}},{"base_weights":[-0E0,2.2636915E-3,-7.462469E-3,-0E0,2.229897E-3,-0E0,-1.9812578E-2,-1.8816529E-3,1.0593933E-3,-6.970815E-3,-0E0],"categories":[],"categories_nodes":[],"categories_segments":[],"categories_sizes":[],"default_left":[0,0,0,0,0,0,0,0,0,0,0],"id":68,"left_children":[1,3,5,-1,-1,7,9,-1,-1,-1,-1],"loss_changes":[3.649174E-3,9.709064E-3,9.468784E-3,0E0,0E0,4.409601E-3,1.5789028E-2,0E0,0E0,0E0,0E0],"parents":[2147483647,0,0,1,1,2,2,5,5,6,6],"right_children":[2,4,6,-1,-1,8,10,-1,-1,-1,-1],"split_conditions":[2E0,2E0,1E0,-0E0,2.229897E-3,1E0,3E0,-1.8816529E-3,1.0593933E-3,-6.970815E-3,-0E0],"split_indices":[1,6,4,0,0,6,6,0,0,0,0],"split_type":[0,0,0,0,0,0,0,0,0,0,0],"sum_hessian":[1.0909779E2,4.918752E1,5.9910275E1,3.0144562E1,1.9042957E1,2.8147144E1,3.1763128E1,3.2432432E0,2.49039E1,4.895961E0,2.6867168E1],"tree_param":{"num_deleted":"0","num_feature":"7","num_nodes":"11","size_leaf_vector":"1"}},{"base_weights":[1.102213E-2,2.3639575E-2,-0E0,-0E0,4.0797394E-2,-9.739683E-3,4.0956203E-2,-3.7246334E-4,9.0751415E-3,6.5072975E-3,-0E0,-2.963698E-3,-0E0,7.028611E-3,-0E0],"categories":[],"categories_nodes":[],"categories_segments":[],"categories_sizes":[],"default_left":[0,0,0,0,0,0,0,0,0,0,0,0,0,0,0],"id":69,"left_children":[1,3,5,7,9,11,13,-1,-1,-1,-1,-1,-1,-1,-1],"loss_changes":[1.773522E-2,1.2408325E-2,1.772445E-2,3.1597853E-2,3.6038496E-3,2.059939E-2,7.17594E-3,0E0,0E0,0E0,0E0,0E0,0E0,0E0,0E0],"parents":[2147483647,0,0,1,1,2,2,3,3,4,4,5,5,6,6],"right_children":[2,4,6,8,10,12,14,-1,-1,-1,-1,-1,-1,-1,-1],"split_conditions":[2E0,2E0,4E0,3E0,3E0,4E0,3E0,-3.7246334E-4,9.0751415E-3,6.5072975E-3,-0E0,-2.963698E-3,-0E0,7.028611E-3,-0E0],"split_indices":[1,6,1,0,0,0,6,0,0,0,0,0,0,0,0],"split_type":[0,0,0,0,0,0,0,0,0,0,0,0,0,0,0],"sum_hessian":[1.05904205E2,5.397693E1,5.1927273E1,2.906348E1,2.4913446E1,4.4959854E1,6.9674187E0,2.6272783E1,2.7906978E0,1.003672E1,1.4876727E1,2.7415995E1,1.754386E1,3.1578948E0,3.8095238E0],"tree_param":{"num_deleted":"0","num_feature":"7","num_nodes":"15","size_leaf_vector":"1"}},{"base_weights":[4.664965E-3,-0E0,4.948739E-2,5.5962005E-3,-9.955907E-3,6.9224886E-3,-0E0,-0E0,3.5772168E-3,-3.573638E-3,1.0259071E-3],"categories":[],"categories_nodes":[],"categories_segments":[],"categories_sizes":[],"default_left":[0,0,0,0,0,0,0,0,0,0,0],"id":70,"left_children":[1,3,5,7,9,-1,-1,-1,-1,-1,-1],"loss_changes":[2.3887381E-2,6.1061988E-3,1.1671176E-2,2.5152193E-2,3.316088E-2,0E0,0E0,0E0,0E0,0E0,0E0],"parents":[2147483647,0,0,1,1,2,2,3,3,4,4],"right_children":[2,4,6,8,10,-1,-1,-1,-1,-1,-1],"split_conditions":[4E0,2E0,3E0,3E0,4E0,6.9224886E-3,-0E0,-0E0,3.5772168E-3,-3.573638E-3,1.0259071E-3],"split_indices":[1,2,4,0,2,0,0,0,0,0,0],"split_type":[0,0,0,0,0,0,0,0,0,0,0],"sum_hessian":[1.1948539E2,1.0966083E2,9.824561E0,7.217758E1,3.7483242E1,6.9674187E0,2.857143E0,5.1731117E1,2.0446465E1,2.7007053E1,1.0476191E1],"tree_param":{"num_deleted":"0","num_feature":"7","num_nodes":"11","size_leaf_vector":"1"}},{"base_weights":[-8.6096703E-4,-8.920738E-3,2.2297192E-2,-1.7286124E-2,9.358593E-3,-0E0,3.0893382E-2,-0E0,-3.6137016E-3,-0E0,1.6083276E-3,4.038889E-3,-0E0],"categories":[],"categories_nodes":[],"categories_segments":[],"categories_sizes":[],"default_left":[0,0,0,0,0,0,0,0,0,0,0,0,0],"id":71,"left_children":[1,3,5,7,9,-1,11,-1,-1,-1,-1,-1,-1],"loss_changes":[1.3940882E-2,1.9100185E-2,3.910725E-3,2.1342525E-2,1.888403E-3,0E0,9.766817E-4,0E0,0E0,0E0,0E0,0E0,0E0],"parents":[2147483647,0,0,1,1,2,2,3,3,4,4,6,6],"right_children":[2,4,6,8,10,-1,12,-1,-1,-1,-1,-1,-1],"split_conditions":[3E0,4E0,2E0,1E0,1E0,-0E0,4E0,-0E0,-3.6137016E-3,-0E0,1.6083276E-3,4.038889E-3,-0E0],"split_indices":[3,0,0,3,3,0,0,0,0,0,0,0,0],"split_type":[0,0,0,0,0,0,0,0,0,0,0,0,0],"sum_hessian":[1.08457596E2,9.692878E1,1.1528822E1,8.5299706E1,1.1629073E1,1.9047619E0,9.624061E0,5.02094E1,3.50903E1,1.0526316E0,1.0576441E1,5.8145366E0,3.8095238E0],"tree_param":{"num_deleted":"0","num_feature":"7","num_nodes":"13","size_leaf_vector":"1"}},{"base_weights":[9.2328276E-4,-1.0833215E-2,9.662023E-3,-3.4662434E-3,-0E0,4.0571526E-2,-5.6955256E-3,2.4921019E-5,9.609977E-3,-8.17254E-3,7.303951E-4],"categories":[],"categories_nodes":[],"categories_segments":[],"categories_sizes":[],"default_left":[0,0,0,0,0,0,0,0,0,0,0],"id":72,"left_children":[1,3,5,-1,-1,7,9,-1,-1,-1,-1],"loss_changes":[1.1765956E-2,2.2179656E-2,6.1959773E-2,0E0,0E0,4.5617834E-2,8.960024E-2,0E0,0E0,0E0,0E0],"parents":[2147483647,0,0,1,1,2,2,5,5,6,6],"right_children":[2,4,6,-1,-1,8,10,-1,-1,-1,-1],"split_conditions":[2E0,4E0,1E0,-3.4662434E-3,-0E0,2E0,3E0,2.4921019E-5,9.609977E-3,-8.17254E-3,7.303951E-4],"split_indices":[0,1,3,0,0,1,0,0,0,0,0],"split_type":[0,0,0,0,0,0,0,0,0,0,0],"sum_hessian":[1.1820617E2,2.590253E1,9.230364E1,2.0087994E1,5.8145366E0,4.090046E1,5.140318E1,2.949287E1,1.1407589E1,1.23497305E1,3.9053448E1],"tree_param":{"num_deleted":"0","num_feature":"7","num_nodes":"11","size_leaf_vector":"1"}},{"base_weights":[-5.054223E-3,-2.7845403E-2,-0E0,-6.2932484E-3,4.626573E-4,-0E0,2.3777155E-2,-1.0826441E-3,9.631999E-4,3.0574815E-3,-0E0],"categories":[],"categories_nodes":[],"categories_segments":[],"categories_sizes":[],"default_left":[0,0,0,0,0,0,0,0,0,0,0],"id":73,"left_children":[1,3,5,-1,-1,7,9,-1,-1,-1,-1],"loss_changes":[1.7277649E-2,5.880606E-2,4.3343734E-3,0E0,0E0,8.46195E-3,1.616627E-4,0E0,0E0,0E0,0E0],"parents":[2147483647,0,0,1,1,2,2,5,5,6,6],"right_children":[2,4,6,-1,-1,8,10,-1,-1,-1,-1],"split_conditions":[2E0,4E0,3E0,-6.2932484E-3,4.626573E-4,4E0,4E0,-1.0826441E-3,9.631999E-4,3.0574815E-3,-0E0],"split_indices":[0,1,3,0,0,0,0,0,0,0,0],"split_type":[0,0,0,0,0,0,0,0,0,0,0],"sum_hessian":[1.04859764E2,2.4770851E1,8.008891E1,1.8856064E1,5.9147873E0,7.342224E1,6.6666665E0,5.8936028E1,1.4486216E1,3.8095238E0,2.857143E0],"tree_param":{"num_deleted":"0","num_feature":"7","num_nodes":"11","size_leaf_vector":"1"}},{"base_weights":[-6.836516E-3,-1.4624723E-2,3.473445E-3,-0E0,-3.660059E-2,-6.3132583E-3,-0E0],"categories":[],"categories_nodes":[],"categories_segments":[],"categories_sizes":[],"default_left":[0,0,0,0,0,0,0],"id":74,"left_children":[1,3,-1,-1,5,-1,-1],"loss_changes":[2.656764E-2,4.2449683E-2,0E0,0E0,7.3377036E-2,0E0,0E0],"parents":[2147483647,0,0,1,1,4,4],"right_children":[2,4,-1,-1,6,-1,-1],"split_conditions":[3E0,2E0,3.473445E-3,-0E0,4E0,-6.3132583E-3,-0E0],"split_indices":[3,1,0,0,0,0,0],"split_type":[0,0,0,0,0,0,0],"sum_hessian":[1.10546074E2,1.0377915E2,6.766917E0,5.636174E1,4.741741E1,3.3683075E1,1.3734336E1],"tree_param":{"num_deleted":"0","num_feature":"7","num_nodes":"7","size_leaf_vector":"1"}},{"base_weights":[-6.7171636E-3,-1.0258021E-2,-0E0,-0E0,-1.8384773E-2,-0E0,-3.1833989E-3],"categories":[],"categories_nodes":[],"categories_segments":[],"categories_sizes":[],"default_left":[0,0,0,0,0,0,0],"id":75,"left_children":[1,3,-1,-1,5,-1,-1],"loss_changes":[5.3790286E-3,1.0655744E-2,0E0,0E0,1.5284983E-2,0E0,0E0],"parents":[2147483647,0,0,1,1,4,4],"right_children":[2,4,-1,-1,6,-1,-1],"split_conditions":[4E0,1E0,-0E0,-0E0,2E0,-0E0,-3.1833989E-3],"split_indices":[2,2,0,0,1,0,0],"split_type":[0,0,0,0,0,0,0],"sum_hessian":[1.1016627E2,9.778532E1,1.2380953E1,3.650534E1,6.1279976E1,2.6424925E1,3.4855053E1],"tree_param":{"num_deleted":"0","num_feature":"7","num_nodes":"7","size_leaf_vector":"1"}},{"base_weights":[-3.3777363E-3,-1.1889019E-2,8.275155E-3,-0E0,-4.7417555E-2,-0E0,1.3895187E-2,-0E0,1.4069295E-3,-0E0,-8.217563E-3,-0E0,1.8253684E-3],"categories":[],"categories_nodes":[],"categories_segments":[],"categories_sizes":[],"default_left":[0,0,0,0,0,0,0,0,0,0,0,0,0],"id":76,"left_children":[1,3,5,7,9,-1,11,-1,-1,-1,-1,-1,-1],"loss_changes":[1.3092953E-2,5.4541327E-2,2.3066287E-3,4.3312903E-3,4.116971E-2,0E0,2.4864492E-3,0E0,0E0,0E0,0E0,0E0,0E0],"parents":[2147483647,0,0,1,1,2,2,3,3,4,4,6,6],"right_children":[2,4,6,8,10,-1,12,-1,-1,-1,-1,-1,-1],"split_conditions":[4E0,1E0,1E0,2E0,3E0,-0E0,3E0,-0E0,1.4069295E-3,-0E0,-8.217563E-3,-0E0,1.8253684E-3],"split_indices":[0,4,4,6,0,0,6,0,0,0,0,0,0],"split_type":[0,0,0,0,0,0,0,0,0,0,0,0,0],"sum_hessian":[1.1180015E2,8.9394135E1,2.2406015E1,6.045387E1,2.8940264E1,3.1578948E0,1.9248121E1,3.9572594E1,2.0881273E1,1.3874693E1,1.5065571E1,1.0526316E0,1.8195488E1],"tree_param":{"num_deleted":"0","num_feature":"7","num_nodes":"13","size_leaf_vector":"1"}},{"base_weights":[-0E0,-6.71297E-3,5.6388687E-2,-1.7943875E-3,-0E0,7.930069E-3,-0E0,-0E0,8.0640893E-4],"categories":[],"categories_nodes":[],"categories_segments":[],"categories_sizes":[],"default_left":[0,0,0,0,0,0,0,0,0],"id":77,"left_children":[1,3,5,-1,7,-1,-1,-1,-1],"loss_changes":[3.2722924E-2,1.6261341E-2,1.5752614E-2,0E0,1.4717478E-3,0E0,0E0,0E0,0E0],"parents":[2147483647,0,0,1,1,2,2,4,4],"right_children":[2,4,6,-1,8,-1,-1,-1,-1],"split_conditions":[4E0,2E0,3E0,-1.7943875E-3,1E0,7.930069E-3,-0E0,-0E0,8.0640893E-4],"split_indices":[1,2,3,0,3,0,0,0,0],"split_type":[0,0,0,0,0,0,0,0,0],"sum_hessian":[1.03688446E2,9.576865E1,7.9198E0,6.304731E1,3.272134E1,6.0150375E0,1.9047619E0,1.1089352E1,2.1631987E1],"tree_param":{"num_deleted":"0","num_feature":"7","num_nodes":"9","size_leaf_vector":"1"}},{"base_weights":[7.387574E-3,1.9070001E-2,-0E0,-0E0,5.083319E-2,-1.5753651E-2,4.1161805E-2,-0E0,1.4774498E-4,-6.4559805E-5,8.744676E-3,-0E0,-4.407882E-3,6.9235116E-3,-0E0],"categories":[],"categories_nodes":[],"categories_segments":[],"categories_sizes":[],"default_left":[0,0,0,0,0,0,0,0,0,0,0,0,0,0,0],"id":78,"left_children":[1,3,5,7,9,11,13,-1,-1,-1,-1,-1,-1,-1,-1],"loss_changes":[1.5904509E-2,3.3849914E-2,2.1836463E-2,3.1946674E-5,8.3937414E-2,3.775974E-2,3.1694015E-3,0E0,0E0,0E0,0E0,0E0,0E0,0E0,0E0],"parents":[2147483647,0,0,1,1,2,2,3,3,4,4,5,5,6,6],"right_children":[2,4,6,8,10,12,14,-1,-1,-1,-1,-1,-1,-1,-1],"split_conditions":[1E0,2E0,4E0,2E0,1E0,2E0,4E0,-0E0,1.4774498E-4,-6.4559805E-5,8.744676E-3,-0E0,-4.407882E-3,6.9235116E-3,-0E0],"split_indices":[3,1,1,6,6,1,5,0,0,0,0,0,0,0,0],"split_type":[0,0,0,0,0,0,0,0,0,0,0,0,0,0,0],"sum_hessian":[1.0421979E2,5.8524597E1,4.5695194E1,3.804757E1,2.0477026E1,3.9780407E1,5.9147873E0,2.441232E1,1.3635251E1,3.2432432E0,1.7233782E1,1.6137106E1,2.3643301E1,2.1052632E0,3.8095238E0],"tree_param":{"num_deleted":"0","num_feature":"7","num_nodes":"15","size_leaf_vector":"1"}},{"base_weights":[9.997593E-3,-0E0,1.5126869E-2,-1.4119707E-3,-0E0,2.571945E-3,-0E0,-2.0837619E-3,3.8848587E-3],"categories":[],"categories_nodes":[],"categories_segments":[],"categories_sizes":[],"default_left":[0,0,0,0,0,0,0,0,0],"id":79,"left_children":[1,3,5,-1,-1,-1,7,-1,-1],"loss_changes":[9.214108E-3,2.7556634E-3,1.8552203E-2,0E0,0E0,0E0,2.3583492E-2,0E0,0E0],"parents":[2147483647,0,0,1,1,2,2,6,6],"right_children":[2,4,6,-1,-1,-1,8,-1,-1],"split_conditions":[2E0,2E0,2E0,-1.4119707E-3,-0E0,2.571945E-3,3E0,-2.0837619E-3,3.8848587E-3],"split_indices":[0,1,3,0,0,0,3,0,0],"split_type":[0,0,0,0,0,0,0,0,0],"sum_hessian":[1.1252332E2,2.3667622E1,8.8855705E1,1.2822124E1,1.0845498E1,5.8128887E1,3.0726818E1,2.3007519E1,7.7192984E0],"tree_param":{"num_deleted":"0","num_feature":"7","num_nodes":"9","size_leaf_vector":"1"}},{"base_weights":[-8.053645E-3,-1.8045299E-2,4.5240014E-3,-2.8924545E-2,3.7706995E-3,-3.7290119E-3,-0E0,4.426039E-4,-0E0],"categories":[],"categories_nodes":[],"categories_segments":[],"categories_sizes":[],"default_left":[0,0,0,0,0,0,0,0,0],"id":80,"left_children":[1,3,-1,5,7,-1,-1,-1,-1],"loss_changes":[4.62001E-2,3.6869228E-2,0E0,3.5600267E-2,3.0098978E-5,0E0,0E0,0E0,0E0],"parents":[2147483647,0,0,1,1,3,3,4,4],"right_children":[2,4,-1,6,8,-1,-1,-1,-1],"split_conditions":[4E0,4E0,4.5240014E-3,4E0,4E0,-3.7290119E-3,-0E0,4.426039E-4,-0E0],"split_indices":[1,0,0,2,2,0,0,0,0],"split_type":[0,0,0,0,0,0,0,0,0],"sum_hessian":[1.0976432E2,1.0089214E2,8.872181E0,8.2395905E1,1.849624E1,7.4776855E1,7.6190476E0,1.4686717E1,3.8095238E0],"tree_param":{"num_deleted":"0","num_feature":"7","num_nodes":"9","size_leaf_vector":"1"}},{"base_weights":[2.0797767E-2,3.5332919E-3,3.2180447E-2,-7.7446963E-4,3.400078E-2,3.7936121E-3,-0E0,-5.026743E-4,-0E0,5.6333463E-3,-0E0],"categories":[],"categories_nodes":[],"categories_segments":[],"categories_sizes":[],"default_left":[0,0,0,0,0,0,0,0,0,0,0],"id":81,"left_children":[1,3,5,7,9,-1,-1,-1,-1,-1,-1],"loss_changes":[5.0119907E-3,2.517657E-2,9.014782E-3,9.422593E-4,1.997589E-2,0E0,0E0,0E0,0E0,0E0,0E0],"parents":[2147483647,0,0,1,1,2,2,3,3,4,4],"right_children":[2,4,6,8,10,-1,-1,-1,-1,-1,-1],"split_conditions":[1E0,2E0,4E0,2E0,1E0,3.7936121E-3,-0E0,-5.026743E-4,-0E0,5.6333463E-3,-0E0],"split_indices":[3,1,2,4,2,0,0,0,0,0,0],"split_type":[0,0,0,0,0,0,0,0,0,0,0],"sum_hessian":[1.1595006E2,6.40461E1,5.1903957E1,4.258824E1,2.1457855E1,4.333253E1,8.571428E0,3.7325085E1,5.263158E0,1.3475801E1,7.9820547E0],"tree_param":{"num_deleted":"0","num_feature":"7","num_nodes":"11","size_leaf_vector":"1"}},{"base_weights":[9.101759E-3,-0E0,1.848201E-2,-0E0,2.4691533E-2,7.692482E-3,1.09367706E-4],"categories":[],"categories_nodes":[],"categories_segments":[],"categories_sizes":[],"default_left":[0,0,0,0,0,0,0],"id":82,"left_children":[1,-1,3,-1,5,-1,-1],"loss_changes":[9.655115E-3,0E0,1.395951E-2,0E0,2.848446E-2,0E0,0E0],"parents":[2147483647,0,0,2,2,4,4],"right_children":[2,-1,4,-1,6,-1,-1],"split_conditions":[2E0,-0E0,1E0,-0E0,2E0,7.692482E-3,1.09367706E-4],"split_indices":[1,0,6,0,6,0,0],"split_type":[0,0,0,0,0,0,0],"sum_hessian":[1.174312E2,6.14433E1,5.5987896E1,2.162162E0,5.3825733E1,9.453175E0,4.437256E1],"tree_param":{"num_deleted":"0","num_feature":"7","num_nodes":"7","size_leaf_vector":"1"}},{"base_weights":[2.3095412E-3,-0E0,4.738921E-3,9.3446043E-4,-9.343883E-3,-0E0,2.0920539E-3,1.959504E-3,-3.4339912E-3],"categories":[],"categories_nodes":[],"categories_segments":[],"categories_sizes":[],"default_left":[0,0,0,0,0,0,0,0,0],"id":83,"left_children":[1,3,-1,5,7,-1,-1,-1,-1],"loss_changes":[2.3003018E-2,2.855442E-3,0E0,1.1557361E-2,3.1140216E-2,0E0,0E0,0E0,0E0],"parents":[2147483647,0,0,1,1,3,3,4,4],"right_children":[2,4,-1,6,8,-1,-1,-1,-1],"split_conditions":[4E0,2E0,4.738921E-3,2E0,2E0,-0E0,2.0920539E-3,1.959504E-3,-3.4339912E-3],"split_indices":[2,3,0,1,1,0,0,0,0],"split_type":[0,0,0,0,0,0,0,0,0],"sum_hessian":[1.1724024E2,1.0771643E2,9.523809E0,7.6789116E1,3.0927319E1,5.1227283E1,2.556183E1,5.1629076E0,2.5764412E1],"tree_param":{"num_deleted":"0","num_feature":"7","num_nodes":"9","size_leaf_vector":"1"}},{"base_weights":[1.4798387E-2,2.6610544E-2,-0E0,4.055444E-3,7.724876E-2,-2.8066138E-2,1.0791544E-2,-0E0,4.9940827E-3,-0E0,9.211333E-3,-4.6285214E-3,-0E0,2.0884725E-3,-0E0],"categories":[],"categories_nodes":[],"categories_segments":[],"categories_sizes":[],"default_left":[0,0,0,0,0,0,0,0,0,0,0,0,0,0,0],"id":84,"left_children":[1,3,5,7,9,11,13,-1,-1,-1,-1,-1,-1,-1,-1],"loss_changes":[2.9204914E-2,4.414739E-2,1.7374387E-2,9.392519E-3,1.0098293E-3,1.6615734E-2,3.2254541E-3,0E0,0E0,0E0,0E0,0E0,0E0,0E0,0E0],"parents":[2147483647,0,0,1,1,2,2,3,3,4,4,5,5,6,6],"right_children":[2,4,6,8,10,12,14,-1,-1,-1,-1,-1,-1,-1,-1],"split_conditions":[2E0,3E0,4E0,4E0,1E0,4E0,4E0,-0E0,4.9940827E-3,-0E0,9.211333E-3,-4.6285214E-3,-0E0,2.0884725E-3,-0E0],"split_indices":[4,0,4,1,2,2,2,0,0,0,0,0,0,0,0],"split_type":[0,0,0,0,0,0,0,0,0,0,0,0,0,0,0],"sum_hessian":[1.0660249E2,7.351978E1,3.3082706E1,5.8442554E1,1.5077229E1,1.8796993E1,1.4285714E1,5.528466E1,3.1578948E0,4.651163E0,1.0426065E1,1.4035088E1,4.7619047E0,1.0476191E1,3.8095238E0],"tree_param":{"num_deleted":"0","num_feature":"7","num_nodes":"15","size_leaf_vector":"1"}}]},"name":"gbtree"},"learner_model_param":{"base_score":"1.5E0","boost_from_average":"1","num_class":"0","num_feature":"7","num_target":"1"},"objective":{"name":"reg:squarederror","reg_loss_param":{"scale_pos_weight":"1"}}},"version":[3,0,5]}