{"learner":{"attributes":{},"feature_names":["ElderlyScore","PregnantOrInfantScore","PhysicalPWDScore","PsychPWDScore","SensoryPWDScore","MedicallyDependentScore","hasGuardian","locationRiskLevel"],"feature_types":["int","int","int","int","int","int","int","int"],"gradient_booster":{"model":{"gbtree_model_param":{"num_parallel_tree":"1","num_trees":"50"},"iteration_indptr":[0,1,2,3,4,5,6,7,8,9,10,11,12,13,14,15,16,17,18,19,20,21,22,23,24,25,26,27,28,29,30,31,32,33,34,35,36,37,38,39,40,41,42,43,44,45,46,47,48,49,50],"tree_info":[0,0,0,0,0,0,0,0,0,0,0,0,0,0,0,0,0,0,0,0,0,0,0,0,0,0,0,0,0,0,0,0,0,0,0,0,0,0,0,0,0,0,0,0,0,0,0,0,0,0],"trees":[{"base_weights":[-0E0,-6.6375E-1,6.3007814E-1,-9.254807E-1,7.300001E-2,3.5156272E-2,1.12352945E-1,-1.0293478E-1,-0E0,-3.6624998E-2,6.75E-2],"categories":[],"categories_nodes":[],"categories_segments":[],"categories_sizes":[],"default_left":[0,0,0,0,0,0,0,0,0,0,0],"id":0,"left_children":[1,3,5,7,-1,9,-1,-1,-1,-1,-1],"loss_changes":[2.5920872E1,1.1716959E1,8.775238E0,2.1004295E0,0E0,4.51099E0,0E0,0E0,0E0,0E0,0E0],"parents":[2147483647,0,0,1,1,2,2,3,3,5,5],"right_children":[2,4,6,8,-1,10,-1,-1,-1,-1,-1],"split_conditions":[1E0,4E0,2E0,2E0,7.300001E-2,2E0,1.12352945E-1,-1.0293478E-1,-0E0,-3.6624998E-2,6.75E-2],"split_indices":[1,0,5,4,0,0,0,0,0,0,0],"split_type":[0,0,0,0,0,0,0,0,0,0,0],"sum_hessian":[6E1,2.9E1,3.1E1,2.5E1,4E0,1.5E1,1.6E1,2.2E1,3E0,9E0,6E0],"tree_param":{"num_deleted":"0","num_feature":"8","num_nodes":"11","size_leaf_vector":"1"}},{"base_weights":[-2.9001933E-2,-2.7646312E-1,9.436477E-1,-6.25269E-1,5.379798E-1,-0E0,1.11453824E-1,-7.155415E-2,4.9975738E-2,2.5812536E-3,8.779085E-2],"categories":[],"categories_nodes":[],"categories_segments":[],"categories_sizes":[],"default_left":[0,0,0,0,0,0,0,0,0,0,0],"id":1,"left_children":[1,3,5,7,9,-1,-1,-1,-1,-1,-1],"loss_changes":[1.5572338E1,1.5436398E1,2.088027E0,4.324727E0,2.3110838E0,0E0,0E0,0E0,0E0,0E0,0E0],"parents":[2147483647,0,0,1,1,2,2,3,3,4,4],"right_children":[2,4,6,8,10,-1,-1,-1,-1,-1,-1],"split_conditions":[3E0,2E0,1E0,3E0,2E0,-0E0,1.11453824E-1,-7.155415E-2,4.9975738E-2,2.5812536E-3,8.779085E-2],"split_indices":[4,1,7,7,5,0,0,0,0,0,0],"split_type":[0,0,0,0,0,0,0,0,0,0,0],"sum_hessian":[6.4E1,5.2E1,1.2E1,3.7E1,1.5E1,2E0,1E1,3.5E1,2E0,7E0,8E0],"tree_param":{"num_deleted":"0","num_feature":"8","num_nodes":"11","size_leaf_vector":"1"}},{"base_weights":[-3.013529E-2,-6.391729E-1,3.5947815E-1,-7.972952E-1,7.249042E-2,-0E0,7.909897E-1,-8.528515E-2,1.8027127E-3,2.6509881E-2,-2.4663752E-2,1.8280616E-2,9.5942624E-2],"categories":[],"categories_nodes":[],"categories_segments":[],"categories_sizes":[],"default_left":[0,0,0,0,0,0,0,0,0,0,0,0,0],"id":2,"left_children":[1,3,5,7,-1,9,11,-1,-1,-1,-1,-1,-1],"loss_changes":[1.6267994E1,6.4378157E0,6.589423E0,1.5651932E0,0E0,1.563842E0,1.1998606E0,0E0,0E0,0E0,0E0,0E0,0E0],"parents":[2147483647,0,0,1,1,2,2,3,3,5,5,6,6],"right_children":[2,4,6,8,-1,10,12,-1,-1,-1,-1,-1,-1],"split_conditions":[1E0,4E0,2E0,4E0,7.249042E-2,1E0,2E0,-8.528515E-2,1.8027127E-3,2.6509881E-2,-2.4663752E-2,1.8280616E-2,9.5942624E-2],"split_indices":[7,5,5,0,0,6,7,0,0,0,0,0,0],"split_type":[0,0,0,0,0,0,0,0,0,0,0,0,0],"sum_hessian":[6.6E1,2.6E1,4E1,2.4E1,2E0,2.2E1,1.8E1,2.3E1,1E0,1E1,1.2E1,5E0,1.3E1],"tree_param":{"num_deleted":"0","num_feature":"8","num_nodes":"13","size_leaf_vector":"1"}},{"base_weights":[-6.0288623E-2,-4.3921256E-1,6.290165E-1,-8.1745166E-1,1.5794437E-1,1.3206092E-1,9.0334076E-1,-9.4613336E-2,-1.2604346E-2,-2.2488326E-2,8.0839574E-2,6.052446E-2,-2.0093562E-2,2.3446878E-2,1.0189905E-1],"categories":[],"categories_nodes":[],"categories_segments":[],"categories_sizes":[],"default_left":[0,0,0,0,0,0,0,0,0,0,0,0,0,0,0],"id":3,"left_children":[1,3,5,7,9,11,13,-1,-1,-1,-1,-1,-1,-1,-1],"loss_changes":[1.7158993E1,1.0171195E1,2.4985247E0,1.7468891E0,4.7067337E0,1.8994548E0,2.1731567E-1,0E0,0E0,0E0,0E0,0E0,0E0,0E0,0E0],"parents":[2147483647,0,0,1,1,2,2,3,3,4,4,5,5,6,6],"right_children":[2,4,6,8,10,12,14,-1,-1,-1,-1,-1,-1,-1,-1],"split_conditions":[2E0,2E0,1E0,2E0,2E0,1E0,1E0,-9.4613336E-2,-1.2604346E-2,-2.2488326E-2,8.0839574E-2,6.052446E-2,-2.0093562E-2,2.3446878E-2,1.0189905E-1],"split_indices":[7,2,1,4,1,6,2,0,0,0,0,0,0,0,0],"split_type":[0,0,0,0,0,0,0,0,0,0,0,0,0,0,0],"sum_hessian":[6.4E1,4.2E1,2.2E1,2.6E1,1.6E1,9E0,1.3E1,2.1E1,5E0,1E1,6E0,4E0,5E0,3E0,1E1],"tree_param":{"num_deleted":"0","num_feature":"8","num_nodes":"15","size_leaf_vector":"1"}},{"base_weights":[4.00901E-2,-3.1187695E-1,4.7778088E-1,-7.52686E-1,-0E0,9.038767E-2,1.9453914E-1,-8.7391734E-2,-0E0,3.1338938E-2,-4.0113416E-2,-1.6227847E-2,4.8760742E-2],"categories":[],"categories_nodes":[],"categories_segments":[],"categories_sizes":[],"default_left":[0,0,0,0,0,0,0,0,0,0,0,0,0],"id":4,"left_children":[1,3,5,7,9,-1,11,-1,-1,-1,-1,-1,-1],"loss_changes":[1.0245388E1,4.9964237E0,2.8955965E0,1.4304667E0,2.8858533E0,0E0,2.333231E0,0E0,0E0,0E0,0E0,0E0,0E0],"parents":[2147483647,0,0,1,1,2,2,3,3,4,4,6,6],"right_children":[2,4,6,8,10,-1,12,-1,-1,-1,-1,-1,-1],"split_conditions":[2E0,1E0,1E0,2E0,1E0,9.038767E-2,2E0,-8.7391734E-2,-0E0,3.1338938E-2,-4.0113416E-2,-1.6227847E-2,4.8760742E-2],"split_indices":[0,7,6,4,6,0,3,0,0,0,0,0,0],"split_type":[0,0,0,0,0,0,0,0,0,0,0,0,0],"sum_hessian":[6.4E1,3.5E1,2.9E1,1.4E1,2.1E1,1E1,1.9E1,1.2E1,2E0,1.2E1,9E0,8E0,1.1E1],"tree_param":{"num_deleted":"0","num_feature":"8","num_nodes":"13","size_leaf_vector":"1"}},{"base_weights":[-0E0,-3.9248246E-1,4.859213E-1,-0E0,-6.570716E-1,1.1216907E-1,7.796927E-1,-3.850443E-2,3.9369516E-2,-7.964458E-2,-1.3338466E-2,-2.0108331E-2,5.130569E-2,1.5708609E-2,8.661737E-2],"categories":[],"categories_nodes":[],"categories_segments":[],"categories_sizes":[],"default_left":[0,0,0,0,0,0,0,0,0,0,0,0,0,0,0],"id":5,"left_children":[1,3,5,7,9,11,13,-1,-1,-1,-1,-1,-1,-1,-1],"loss_changes":[1.356348E1,4.354177E0,2.9801378E0,2.5810356E0,1.1805744E0,2.2684188E0,2.676487E-1,0E0,0E0,0E0,0E0,0E0,0E0,0E0,0E0],"parents":[2147483647,0,0,1,1,2,2,3,3,4,4,5,5,6,6],"right_children":[2,4,6,8,10,12,14,-1,-1,-1,-1,-1,-1,-1,-1],"split_conditions":[2E0,1E0,2E0,1E0,2E0,1E0,1E0,-3.850443E-2,3.9369516E-2,-7.964458E-2,-1.3338466E-2,-2.0108331E-2,5.130569E-2,1.5708609E-2,8.661737E-2],"split_indices":[0,6,5,1,3,1,2,0,0,0,0,0,0,0,0],"split_type":[0,0,0,0,0,0,0,0,0,0,0,0,0,0,0],"sum_hessian":[6.9E1,3.8E1,3.1E1,1.5E1,2.3E1,1.5E1,1.6E1,7E0,8E0,1.7E1,6E0,8E0,7E0,3E0,1.3E1],"tree_param":{"num_deleted":"0","num_feature":"8","num_nodes":"15","size_leaf_vector":"1"}},{"base_weights":[4.75118E-3,-5.361822E-1,3.4169245E-1,-7.697587E-1,-0E0,1.1406633E-1,7.205647E-2,-8.051481E-2,-0E0,-1.2147737E-2,3.15463E-2,-4.124179E-3,4.3221433E-2],"categories":[],"categories_nodes":[],"categories_segments":[],"categories_sizes":[],"default_left":[0,0,0,0,0,0,0,0,0,0,0,0,0],"id":6,"left_children":[1,3,5,7,9,11,-1,-1,-1,-1,-1,-1,-1],"loss_changes":[1.1568519E1,3.1731915E0,2.950141E0,2.9923248E-1,3.870912E-1,1.5474077E0,0E0,0E0,0E0,0E0,0E0,0E0,0E0],"parents":[2147483647,0,0,1,1,2,2,3,3,4,4,5,5],"right_children":[2,4,6,8,10,12,-1,-1,-1,-1,-1,-1,-1],"split_conditions":[1E0,1E0,3E0,3E0,2E0,2E0,7.205647E-2,-8.051481E-2,-0E0,-1.2147737E-2,3.15463E-2,-4.124179E-3,4.3221433E-2],"split_indices":[7,1,4,5,0,5,0,0,0,0,0,0,0],"split_type":[0,0,0,0,0,0,0,0,0,0,0,0,0],"sum_hessian":[6.2E1,2.3E1,3.9E1,1.6E1,7E0,2.6E1,1.3E1,1.5E1,1E0,5E0,2E0,1.7E1,9E0],"tree_param":{"num_deleted":"0","num_feature":"8","num_nodes":"13","size_leaf_vector":"1"}},{"base_weights":[3.643201E-2,-3.0716744E-1,4.9475873E-1,-5.2470493E-1,3.4819004E-1,1.3520323E-1,7.247251E-1,-6.3561104E-2,1.746342E-2,1.4244377E-3,6.37061E-2,4.4360932E-2,-0E0,1.4029795E-2,8.103393E-2],"categories":[],"categories_nodes":[],"categories_segments":[],"categories_sizes":[],"default_left":[0,0,0,0,0,0,0,0,0,0,0,0,0,0,0],"id":7,"left_children":[1,3,5,7,9,11,13,-1,-1,-1,-1,-1,-1,-1,-1],"loss_changes":[1.0167061E1,5.4032884E0,1.7872491E0,2.5131936E0,5.3347754E-1,7.463073E-1,2.1155643E-1,0E0,0E0,0E0,0E0,0E0,0E0,0E0,0E0],"parents":[2147483647,0,0,1,1,2,2,3,3,4,4,5,5,6,6],"right_children":[2,4,6,8,10,12,14,-1,-1,-1,-1,-1,-1,-1,-1],"split_conditions":[2E0,2E0,1E0,4E0,2E0,1E0,1E0,-6.3561104E-2,1.746342E-2,1.4244377E-3,6.37061E-2,4.4360932E-2,-0E0,1.4029795E-2,8.103393E-2],"split_indices":[2,7,1,1,4,6,3,0,0,0,0,0,0,0,0],"split_type":[0,0,0,0,0,0,0,0,0,0,0,0,0,0,0],"sum_hessian":[6.2E1,3.5E1,2.7E1,2.7E1,8E0,1.2E1,1.5E1,2.4E1,3E0,5E0,3E0,4E0,8E0,3E0,1.2E1],"tree_param":{"num_deleted":"0","num_feature":"8","num_nodes":"15","size_leaf_vector":"1"}},{"base_weights":[7.79245E-2,-3.2428238E-1,4.359936E-1,-5.032302E-1,6.0689252E-2,6.7125377E-3,6.2952116E-2,-6.086526E-2,-0E0,-1.8590523E-2,3.4575082E-2],"categories":[],"categories_nodes":[],"categories_segments":[],"categories_sizes":[],"default_left":[0,0,0,0,0,0,0,0,0,0,0],"id":8,"left_children":[1,3,5,7,-1,9,-1,-1,-1,-1,-1],"loss_changes":[9.702419E0,5.41916E0,2.6684546E0,1.6830349E0,0E0,9.9316204E-1,0E0,0E0,0E0,0E0,0E0],"parents":[2147483647,0,0,1,1,2,2,3,3,5,5],"right_children":[2,4,6,8,-1,10,-1,-1,-1,-1,-1],"split_conditions":[1E0,4E0,1E0,3E0,6.0689252E-2,4E0,6.2952116E-2,-6.086526E-2,-0E0,-1.8590523E-2,3.4575082E-2],"split_indices":[1,0,2,2,0,1,0,0,0,0,0],"split_type":[0,0,0,0,0,0,0,0,0,0,0],"sum_hessian":[6.5E1,3E1,3.5E1,2.6E1,4E0,1.2E1,2.3E1,2.2E1,4E0,7E0,5E0],"tree_param":{"num_deleted":"0","num_feature":"8","num_nodes":"11","size_leaf_vector":"1"}},{"base_weights":[1.1460804E-2,4.369405E-1,-2.1530734E-1,-0E0,6.19704E-2,-4.2255887E-1,1.0368309E-1,-3.3130012E-2,2.099659E-2,-5.5156846E-2,-6.2033175E-3,-8.900404E-3,3.1899575E-2],"categories":[],"categories_nodes":[],"categories_segments":[],"categories_sizes":[],"default_left":[0,0,0,0,0,0,0,0,0,0,0,0,0],"id":9,"left_children":[1,3,5,7,-1,9,11,-1,-1,-1,-1,-1,-1],"loss_changes":[6.283463E0,2.1374712E0,2.9138112E0,6.153817E-1,0E0,8.682766E-1,8.071954E-1,0E0,0E0,0E0,0E0,0E0,0E0],"parents":[2147483647,0,0,1,1,2,2,3,3,5,5,6,6],"right_children":[2,4,6,8,-1,10,12,-1,-1,-1,-1,-1,-1],"split_conditions":[1E0,1E0,2E0,1E0,6.19704E-2,2E0,1E0,-3.3130012E-2,2.099659E-2,-5.5156846E-2,-6.2033175E-3,-8.900404E-3,3.1899575E-2],"split_indices":[6,2,5,4,0,2,1,0,0,0,0,0,0],"split_type":[0,0,0,0,0,0,0,0,0,0,0,0,0],"sum_hessian":[6.2E1,2.2E1,4E1,6E0,1.6E1,2.5E1,1.5E1,3E0,3E0,1.7E1,8E0,7E0,8E0],"tree_param":{"num_deleted":"0","num_feature":"8","num_nodes":"13","size_leaf_vector":"1"}},{"base_weights":[-4.7785123E-3,-3.24536E-1,3.3098072E-1,-4.7473484E-1,1.2290245E-1,6.1460983E-2,9.5729046E-2,-5.1133957E-2,-0E0,-0E0,3.9616395E-2,-6.8196887E-3,3.7166107E-2],"categories":[],"categories_nodes":[],"categories_segments":[],"categories_sizes":[],"default_left":[0,0,0,0,0,0,0,0,0,0,0,0,0],"id":10,"left_children":[1,3,5,7,9,-1,11,-1,-1,-1,-1,-1,-1],"loss_changes":[6.5458846E0,2.3848143E0,1.5209973E0,6.4090586E-1,3.499975E-1,0E0,9.912616E-1,0E0,0E0,0E0,0E0,0E0,0E0],"parents":[2147483647,0,0,1,1,2,2,3,3,4,4,6,6],"right_children":[2,4,6,8,10,-1,12,-1,-1,-1,-1,-1,-1],"split_conditions":[2E0,2E0,1E0,3E0,2E0,6.1460983E-2,2E0,-5.1133957E-2,-0E0,-0E0,3.9616395E-2,-6.8196887E-3,3.7166107E-2],"split_indices":[0,4,6,7,7,0,5,0,0,0,0,0,0],"split_type":[0,0,0,0,0,0,0,0,0,0,0,0,0],"sum_hessian":[5.9E1,3.1E1,2.8E1,2.4E1,7E0,1.1E1,1.7E1,2.3E1,1E0,5E0,2E0,1E1,7E0],"tree_param":{"num_deleted":"0","num_feature":"8","num_nodes":"13","size_leaf_vector":"1"}},{"base_weights":[-0E0,-4.0042835E-1,1.7904054E-1,-5.403714E-1,-0E0,2.3709567E-2,3.9872152E-1,-6.272226E-2,-0E0,-3.4357787E-3,1.5352099E-2,-1.7716093E-2,2.9212093E-2,-0E0,6.327284E-2],"categories":[],"categories_nodes":[],"categories_segments":[],"categories_sizes":[],"default_left":[0,0,0,0,0,0,0,0,0,0,0,0,0,0,0],"id":11,"left_children":[1,3,5,7,9,11,13,-1,-1,-1,-1,-1,-1,-1,-1],"loss_changes":[4.232503E0,1.2018464E0,1.2125082E0,6.3287926E-1,7.424745E-2,1.5649625E0,1.459791E0,0E0,0E0,0E0,0E0,0E0,0E0,0E0,0E0],"parents":[2147483647,0,0,1,1,2,2,3,3,4,4,5,5,6,6],"right_children":[2,4,6,8,10,12,14,-1,-1,-1,-1,-1,-1,-1,-1],"split_conditions":[1E0,2E0,2E0,3E0,1E0,3E0,2E0,-6.272226E-2,-0E0,-3.4357787E-3,1.5352099E-2,-1.7716093E-2,2.9212093E-2,-0E0,6.327284E-2],"split_indices":[3,1,7,5,2,3,5,0,0,0,0,0,0,0,0],"split_type":[0,0,0,0,0,0,0,0,0,0,0,0,0,0,0],"sum_hessian":[5.8E1,1.7E1,4.1E1,1.3E1,4E0,2.6E1,1.5E1,1.1E1,2E0,2E0,2E0,1.4E1,1.2E1,6E0,9E0],"tree_param":{"num_deleted":"0","num_feature":"8","num_nodes":"15","size_leaf_vector":"1"}},{"base_weights":[5.7431724E-2,-2.4088265E-1,3.6876282E-1,-3.9350054E-1,1.1475035E-1,1.8607338E-1,5.544312E-1,-4.3721985E-2,7.7881576E-3,-0E0,3.5752878E-2,-4.70134E-3,3.0023653E-2,-0E0,6.0413033E-2],"categories":[],"categories_nodes":[],"categories_segments":[],"categories_sizes":[],"default_left":[0,0,0,0,0,0,0,0,0,0,0,0,0,0,0],"id":12,"left_children":[1,3,5,7,9,11,13,-1,-1,-1,-1,-1,-1,-1,-1],"loss_changes":[6.3753624E0,2.029912E0,6.7985106E-1,7.289336E-1,2.5180405E-1,6.7292506E-1,1.3374615E-1,0E0,0E0,0E0,0E0,0E0,0E0,0E0,0E0],"parents":[2147483647,0,0,1,1,2,2,3,3,4,4,5,5,6,6],"right_children":[2,4,6,8,10,12,14,-1,-1,-1,-1,-1,-1,-1,-1],"split_conditions":[1E0,2E0,2E0,3E0,2E0,2E0,1E0,-4.3721985E-2,7.7881576E-3,-0E0,3.5752878E-2,-4.70134E-3,3.0023653E-2,-0E0,6.0413033E-2],"split_indices":[1,3,7,7,7,1,5,0,0,0,0,0,0,0,0],"split_type":[0,0,0,0,0,0,0,0,0,0,0,0,0,0,0],"sum_hessian":[6.6E1,3.3E1,3.3E1,2.4E1,9E0,1.9E1,1.4E1,2.3E1,1E0,7E0,2E0,5E0,1.4E1,2E0,1.2E1],"tree_param":{"num_deleted":"0","num_feature":"8","num_nodes":"15","size_leaf_vector":"1"}},{"base_weights":[2.2440268E-2,-1.19798765E-1,4.999599E-2,-3.1405538E-1,1.3315046E-1,-4.150217E-2,4.1991277E-3,-2.0581712E-3,3.389408E-2],"categories":[],"categories_nodes":[],"categories_segments":[],"categories_sizes":[],"default_left":[0,0,0,0,0,0,0,0,0],"id":13,"left_children":[1,3,-1,5,7,-1,-1,-1,-1],"loss_changes":[4.393213E0,2.441711E0,0E0,1.2105067E0,7.9888743E-1,0E0,0E0,0E0,0E0],"parents":[2147483647,0,0,1,1,3,3,4,4],"right_children":[2,4,-1,6,8,-1,-1,-1,-1],"split_conditions":[3E0,2E0,4.999599E-2,2E0,1E0,-4.150217E-2,4.1991277E-3,-2.0581712E-3,3.389408E-2],"split_indices":[4,0,0,1,1,0,0,0,0],"split_type":[0,0,0,0,0,0,0,0,0],"sum_hessian":[6E1,4.6E1,1.4E1,2.7E1,1.9E1,2.2E1,5E0,1E1,9E0],"tree_param":{"num_deleted":"0","num_feature":"8","num_nodes":"9","size_leaf_vector":"1"}},{"base_weights":[4.5042176E-2,-9.297845E-2,5.3544145E-2,-3.1226045E-1,1.3675456E-1,-3.842867E-2,-0E0,3.0768573E-2,-0E0],"categories":[],"categories_nodes":[],"categories_segments":[],"categories_sizes":[],"default_left":[0,0,0,0,0,0,0,0,0],"id":14,"left_children":[1,3,-1,5,7,-1,-1,-1,-1],"loss_changes":[4.6028695E0,2.6492717E0,0E0,7.638762E-1,6.872027E-1,0E0,0E0,0E0,0E0],"parents":[2147483647,0,0,1,1,3,3,4,4],"right_children":[2,4,-1,6,8,-1,-1,-1,-1],"split_conditions":[3E0,1E0,5.3544145E-2,3E0,1E0,-3.842867E-2,-0E0,3.0768573E-2,-0E0],"split_indices":[4,1,0,3,4,0,0,0,0],"split_type":[0,0,0,0,0,0,0,0,0],"sum_hessian":[6.3E1,4.9E1,1.4E1,2.6E1,2.3E1,2.2E1,4E0,1.1E1,1.2E1],"tree_param":{"num_deleted":"0","num_feature":"8","num_nodes":"9","size_leaf_vector":"1"}},{"base_weights":[2.5515713E-2,-1.769074E-1,3.3547816E-1,-4.6582305E-1,2.2408317E-3,1.05444856E-1,4.5578575E-1,-5.1518388E-2,-0E0,-1.0645574E-2,1.408653E-2,-0E0,2.5380531E-2,1.8931817E-3,5.5815943E-2],"categories":[],"categories_nodes":[],"categories_segments":[],"categories_sizes":[],"default_left":[0,0,0,0,0,0,0,0,0,0,0,0,0,0,0],"id":15,"left_children":[1,3,5,7,9,11,13,-1,-1,-1,-1,-1,-1,-1,-1],"loss_changes":[4.2169657E0,2.2514253E0,4.1854262E-1,2.4394417E-1,3.9383274E-1,1.8866228E-1,4.1644478E-1,0E0,0E0,0E0,0E0,0E0,0E0,0E0,0E0],"parents":[2147483647,0,0,1,1,2,2,3,3,4,4,5,5,6,6],"right_children":[2,4,6,8,10,12,14,-1,-1,-1,-1,-1,-1,-1,-1],"split_conditions":[2E0,1E0,2E0,2E0,2E0,2E0,1E0,-5.1518388E-2,-0E0,-1.0645574E-2,1.408653E-2,-0E0,2.5380531E-2,1.8931817E-3,5.5815943E-2],"split_indices":[2,7,5,5,7,4,7,0,0,0,0,0,0,0,0],"split_type":[0,0,0,0,0,0,0,0,0,0,0,0,0,0,0],"sum_hessian":[6.4E1,3.8E1,2.6E1,1.5E1,2.3E1,1.1E1,1.5E1,1.3E1,2E0,1.1E1,1.2E1,7E0,4E0,4E0,1.1E1],"tree_param":{"num_deleted":"0","num_feature":"8","num_nodes":"15","size_leaf_vector":"1"}},{"base_weights":[1.253088E-2,-1.7385004E-1,2.5428265E-1,-2.5365826E-1,2.5573093E-2,-8.362931E-2,3.4899887E-2,-4.0847436E-2,-2.795617E-3,-3.829129E-2,1.7662525E-2],"categories":[],"categories_nodes":[],"categories_segments":[],"categories_sizes":[],"default_left":[0,0,0,0,0,0,0,0,0,0,0],"id":16,"left_children":[1,3,5,7,-1,9,-1,-1,-1,-1,-1],"loss_changes":[2.9230723E0,1.2637751E0,1.090038E0,8.5357726E-1,0E0,6.381154E-1,0E0,0E0,0E0,0E0,0E0],"parents":[2147483647,0,0,1,1,2,2,3,3,5,5],"right_children":[2,4,6,8,-1,10,-1,-1,-1,-1,-1],"split_conditions":[1E0,4E0,1E0,1E0,2.5573093E-2,1E0,3.4899887E-2,-4.0847436E-2,-2.795617E-3,-3.829129E-2,1.7662525E-2],"split_indices":[1,0,3,7,0,0,0,0,0,0,0],"split_type":[0,0,0,0,0,0,0,0,0,0,0],"sum_hessian":[6.2E1,3.4E1,2.8E1,3E1,4E0,5E0,2.3E1,1.6E1,1.4E1,3E0,2E0],"tree_param":{"num_deleted":"0","num_feature":"8","num_nodes":"11","size_leaf_vector":"1"}},{"base_weights":[-6.593159E-3,-1.8588193E-1,1.7968774E-1,-2.6607785E-1,1.129409E-1,-0E0,3.2192427E-1,-3.0863507E-2,-0E0,2.4104223E-2,-0E0,-2.9917141E-2,9.600472E-3,5.269948E-3,4.4300374E-2],"categories":[],"categories_nodes":[],"categories_segments":[],"categories_sizes":[],"default_left":[0,0,0,0,0,0,0,0,0,0,0,0,0,0,0],"id":17,"left_children":[1,3,5,7,9,11,13,-1,-1,-1,-1,-1,-1,-1,-1],"loss_changes":[2.2741685E0,9.69337E-1,8.322283E-1,3.527224E-1,2.0121725E-1,4.68617E-1,3.1555915E-1,0E0,0E0,0E0,0E0,0E0,0E0,0E0,0E0],"parents":[2147483647,0,0,1,1,2,2,3,3,4,4,5,5,6,6],"right_children":[2,4,6,8,10,12,14,-1,-1,-1,-1,-1,-1,-1,-1],"split_conditions":[2E0,2E0,2E0,3E0,1E0,1E0,3E0,-3.0863507E-2,-0E0,2.4104223E-2,-0E0,-2.9917141E-2,9.600472E-3,5.269948E-3,4.4300374E-2],"split_indices":[0,7,2,3,0,7,0,0,0,0,0,0,0,0,0],"split_type":[0,0,0,0,0,0,0,0,0,0,0,0,0,0,0],"sum_hessian":[6.6E1,3.5E1,3.1E1,2.9E1,6E0,1.4E1,1.7E1,2.5E1,4E0,4E0,2E0,3E0,1.1E1,7E0,1E1],"tree_param":{"num_deleted":"0","num_feature":"8","num_nodes":"15","size_leaf_vector":"1"}},{"base_weights":[4.6317745E-3,-1.5679763E-1,2.5550774E-1,9.8282985E-2,-2.9177454E-1,1.0720896E-1,4.4297766E-2,-4.8330976E-3,2.1176167E-2,-3.5392564E-2,-2.188729E-3,-0E0,1.8537587E-2],"categories":[],"categories_nodes":[],"categories_segments":[],"categories_sizes":[],"default_left":[0,0,0,0,0,0,0,0,0,0,0,0,0],"id":18,"left_children":[1,3,5,7,9,11,-1,-1,-1,-1,-1,-1,-1],"loss_changes":[2.924331E0,1.5714821E0,4.8366082E-1,3.2487577E-1,2.9078674E-1,1.9398908E-1,0E0,0E0,0E0,0E0,0E0,0E0,0E0],"parents":[2147483647,0,0,1,1,2,2,3,3,4,4,5,5],"right_children":[2,4,6,8,10,12,-1,-1,-1,-1,-1,-1,-1],"split_conditions":[2E0,1E0,3E0,1E0,2E0,1E0,4.4297766E-2,-4.8330976E-3,2.1176167E-2,-3.5392564E-2,-2.188729E-3,-0E0,1.8537587E-2],"split_indices":[3,6,0,2,2,1,0,0,0,0,0,0,0],"split_type":[0,0,0,0,0,0,0,0,0,0,0,0,0],"sum_hessian":[6.9E1,4.1E1,2.8E1,1.3E1,2.8E1,1.8E1,1E1,4E0,9E0,2.1E1,7E0,7E0,1.1E1],"tree_param":{"num_deleted":"0","num_feature":"8","num_nodes":"13","size_leaf_vector":"1"}},{"base_weights":[-4.5308233E-3,-1.7916681E-1,1.8269552E-1,-2.5761038E-1,9.998038E-2,-0E0,2.8325582E-2,-3.0062636E-2,-0E0,2.0381851E-2,-0E0,-1.4551079E-3,1.8077439E-2],"categories":[],"categories_nodes":[],"categories_segments":[],"categories_sizes":[],"default_left":[0,0,0,0,0,0,0,0,0,0,0,0,0],"id":19,"left_children":[1,3,5,7,9,11,-1,-1,-1,-1,-1,-1,-1],"loss_changes":[2.1235418E0,8.7097657E-1,4.4287968E-1,3.3487546E-1,9.619539E-2,1.0036719E-1,0E0,0E0,0E0,0E0,0E0,0E0,0E0],"parents":[2147483647,0,0,1,1,2,2,3,3,4,4,5,5],"right_children":[2,4,6,8,10,12,-1,-1,-1,-1,-1,-1,-1],"split_conditions":[2E0,3E0,2E0,2E0,1E0,2E0,2.8325582E-2,-3.0062636E-2,-0E0,2.0381851E-2,-0E0,-1.4551079E-3,1.8077439E-2],"split_indices":[3,5,0,4,6,2,0,0,0,0,0,0,0],"split_type":[0,0,0,0,0,0,0,0,0,0,0,0,0],"sum_hessian":[6.3E1,3.4E1,2.9E1,2.8E1,6E0,1.2E1,1.7E1,2.4E1,4E0,3E0,3E0,1E1,2E0],"tree_param":{"num_deleted":"0","num_feature":"8","num_nodes":"13","size_leaf_vector":"1"}},{"base_weights":[-0E0,-2.7653405E-1,1.1787951E-1,-0E0,-3.615662E-1,7.867925E-4,3.0194348E-2,-3.117045E-3,1.1596318E-2,-4.2627044E-2,-0E0,-7.158944E-3,1.690463E-2],"categories":[],"categories_nodes":[],"categories_segments":[],"categories_sizes":[],"default_left":[0,0,0,0,0,0,0,0,0,0,0,0,0],"id":20,"left_children":[1,3,5,7,9,11,-1,-1,-1,-1,-1,-1,-1],"loss_changes":[2.1964095E0,5.6226015E-1,8.829196E-1,4.325717E-2,2.7050257E-1,4.5052603E-1,0E0,0E0,0E0,0E0,0E0,0E0,0E0],"parents":[2147483647,0,0,1,1,2,2,3,3,4,4,5,5],"right_children":[2,4,6,8,10,12,-1,-1,-1,-1,-1,-1,-1],"split_conditions":[1E0,1E0,3E0,1E0,3E0,2E0,3.0194348E-2,-3.117045E-3,1.1596318E-2,-4.2627044E-2,-0E0,-7.158944E-3,1.690463E-2],"split_indices":[3,6,2,0,2,7,0,0,0,0,0,0,0],"split_type":[0,0,0,0,0,0,0,0,0,0,0,0,0],"sum_hessian":[6.6E1,1.9E1,4.7E1,4E0,1.5E1,3.1E1,1.6E1,2E0,2E0,1.2E1,3E0,2E1,1.1E1],"tree_param":{"num_deleted":"0","num_feature":"8","num_nodes":"13","size_leaf_vector":"1"}},{"base_weights":[-0E0,1.8907227E-1,-1.0562224E-1,-0E0,2.8804017E-2,-1.4946492E-1,2.122888E-2,-1.3194054E-2,9.227516E-3,-1.9508468E-2,9.006075E-4],"categories":[],"categories_nodes":[],"categories_segments":[],"categories_sizes":[],"default_left":[0,0,0,0,0,0,0,0,0,0,0],"id":21,"left_children":[1,3,5,7,-1,9,-1,-1,-1,-1,-1],"loss_changes":[1.3511064E0,4.337662E-1,5.717787E-1,1.2923618E-1,0E0,3.695138E-1,0E0,0E0,0E0,0E0,0E0],"parents":[2147483647,0,0,1,1,2,2,3,3,5,5],"right_children":[2,4,6,8,-1,10,-1,-1,-1,-1,-1],"split_conditions":[1E0,1E0,3E0,1E0,2.8804017E-2,3E0,2.122888E-2,-1.3194054E-2,9.227516E-3,-1.9508468E-2,9.006075E-4],"split_indices":[6,1,7,0,0,5,0,0,0,0,0],"split_type":[0,0,0,0,0,0,0,0,0,0,0],"sum_hessian":[6.4E1,2.4E1,4E1,9E0,1.5E1,3.7E1,3E0,3E0,6E0,3.1E1,6E0],"tree_param":{"num_deleted":"0","num_feature":"8","num_nodes":"11","size_leaf_vector":"1"}},{"base_weights":[-4.423993E-3,-7.096959E-2,3.8281176E-2,-1.7760296E-1,1.4215028E-1,-2.5911504E-2,5.734969E-5,2.241401E-2,1.2343394E-3],"categories":[],"categories_nodes":[],"categories_segments":[],"categories_sizes":[],"default_left":[0,0,0,0,0,0,0,0,0],"id":22,"left_children":[1,3,-1,5,7,-1,-1,-1,-1],"loss_changes":[1.4431456E0,1.27016E0,0E0,6.8131363E-1,5.9919924E-2,0E0,0E0,0E0,0E0],"parents":[2147483647,0,0,1,1,3,3,4,4],"right_children":[2,4,-1,6,8,-1,-1,-1,-1],"split_conditions":[4E0,2E0,3.8281176E-2,2E0,1E0,-2.5911504E-2,5.734969E-5,2.241401E-2,1.2343394E-3],"split_indices":[4,1,0,3,4,0,0,0,0],"split_type":[0,0,0,0,0,0,0,0,0],"sum_hessian":[6E1,5.3E1,7E0,3.7E1,1.6E1,2.7E1,1E1,7E0,9E0],"tree_param":{"num_deleted":"0","num_feature":"8","num_nodes":"9","size_leaf_vector":"1"}},{"base_weights":[1.1218428E-2,-1.3002633E-1,1.9514194E-1,-1.963348E-1,1.3055676E-2,-2.2439063E-3,2.7180372E-2,-2.3056922E-2,-0E0,-3.6024787E-3,1.5952501E-2,-4.8379316E-3,-0E0],"categories":[],"categories_nodes":[],"categories_segments":[],"categories_sizes":[],"default_left":[0,0,0,0,0,0,0,0,0,0,0,0,0],"id":23,"left_children":[1,3,5,7,9,11,-1,-1,-1,-1,-1,-1,-1],"loss_changes":[1.6166253E0,4.0729195E-1,5.590843E-1,2.058838E-1,1.32196E-1,1.4008104E-2,0E0,0E0,0E0,0E0,0E0,0E0,0E0],"parents":[2147483647,0,0,1,1,2,2,3,3,4,4,5,5],"right_children":[2,4,6,8,10,12,-1,-1,-1,-1,-1,-1,-1],"split_conditions":[2E0,2E0,1E0,3E0,2E0,4E0,2.7180372E-2,-2.3056922E-2,-0E0,-3.6024787E-3,1.5952501E-2,-4.8379316E-3,-0E0],"split_indices":[0,2,5,3,5,0,0,0,0,0,0,0,0],"split_type":[0,0,0,0,0,0,0,0,0,0,0,0,0],"sum_hessian":[5.9E1,3.2E1,2.7E1,2.4E1,8E0,6E0,2.1E1,2.1E1,3E0,4E0,4E0,5E0,1E0],"tree_param":{"num_deleted":"0","num_feature":"8","num_nodes":"13","size_leaf_vector":"1"}},{"base_weights":[1.9807136E-2,-1.0662725E-1,1.837809E-1,1.2983075E-1,-2.4908051E-1,9.112115E-2,2.9667532E-2,-9.455915E-3,2.790426E-2,-2.8702999E-2,-0E0,-0E0,1.5509145E-2],"categories":[],"categories_nodes":[],"categories_segments":[],"categories_sizes":[],"default_left":[0,0,0,0,0,0,0,0,0,0,0,0,0],"id":24,"left_children":[1,3,5,7,9,11,-1,-1,-1,-1,-1,-1,-1],"loss_changes":[1.5301392E0,1.4056473E0,1.2427366E-1,5.8737063E-1,3.642006E-1,2.0218632E-1,0E0,0E0,0E0,0E0,0E0,0E0,0E0],"parents":[2147483647,0,0,1,1,2,2,3,3,4,4,5,5],"right_children":[2,4,6,8,10,12,-1,-1,-1,-1,-1,-1,-1],"split_conditions":[2E0,1E0,2E0,2E0,3E0,3E0,2.9667532E-2,-9.455915E-3,2.790426E-2,-2.8702999E-2,-0E0,-0E0,1.5509145E-2],"split_indices":[3,6,7,5,5,3,0,0,0,0,0,0,0],"split_type":[0,0,0,0,0,0,0,0,0,0,0,0,0],"sum_hessian":[7E1,3.8E1,3.2E1,1.3E1,2.5E1,2.1E1,1.1E1,4E0,9E0,2.3E1,2E0,6E0,1.5E1],"tree_param":{"num_deleted":"0","num_feature":"8","num_nodes":"13","size_leaf_vector":"1"}},{"base_weights":[-0E0,-1.1898114E-1,1.6525374E-1,-1.913867E-1,7.660162E-3,-0E0,2.0830987E-2,-0E0,-2.4666077E-2,-3.6682643E-3,1.8594518E-2,-6.5668486E-3,3.964738E-3],"categories":[],"categories_nodes":[],"categories_segments":[],"categories_sizes":[],"default_left":[0,0,0,0,0,0,0,0,0,0,0,0,0],"id":25,"left_children":[1,3,5,7,9,11,-1,-1,-1,-1,-1,-1,-1],"loss_changes":[1.3582157E0,4.6011066E-1,2.0608395E-1,2.52064E-1,1.8422577E-1,2.0796621E-2,0E0,0E0,0E0,0E0,0E0,0E0,0E0],"parents":[2147483647,0,0,1,1,2,2,3,3,4,4,5,5],"right_children":[2,4,6,8,10,12,-1,-1,-1,-1,-1,-1,-1],"split_conditions":[2E0,2E0,1E0,1E0,2E0,1E0,2.0830987E-2,-0E0,-2.4666077E-2,-3.6682643E-3,1.8594518E-2,-6.5668486E-3,3.964738E-3],"split_indices":[2,3,3,6,7,4,0,0,0,0,0,0,0],"split_type":[0,0,0,0,0,0,0,0,0,0,0,0,0],"sum_hessian":[6.7E1,3.9E1,2.8E1,2.7E1,1.2E1,6E0,2.2E1,7E0,2E1,8E0,4E0,2E0,4E0],"tree_param":{"num_deleted":"0","num_feature":"8","num_nodes":"13","size_leaf_vector":"1"}},{"base_weights":[6.118469E-3,-8.6562596E-2,1.4079826E-1,-1.8132144E-1,-0E0,1.1592893E-2,2.2071144E-2,-2.1480596E-2,-0E0,-6.9504057E-4,9.509568E-3,-0E0,1.1472092E-2],"categories":[],"categories_nodes":[],"categories_segments":[],"categories_sizes":[],"default_left":[0,0,0,0,0,0,0,0,0,0,0,0,0],"id":26,"left_children":[1,3,5,7,9,11,-1,-1,-1,-1,-1,-1,-1],"loss_changes":[7.258303E-1,3.2663134E-1,1.3941947E-1,1.7934865E-1,4.5747332E-2,6.4057305E-2,0E0,0E0,0E0,0E0,0E0,0E0,0E0],"parents":[2147483647,0,0,1,1,2,2,3,3,4,4,5,5],"right_children":[2,4,6,8,10,12,-1,-1,-1,-1,-1,-1,-1],"split_conditions":[2E0,1E0,1E0,4E0,4E0,3E0,2.2071144E-2,-2.1480596E-2,-0E0,-6.9504057E-4,9.509568E-3,-0E0,1.1472092E-2],"split_indices":[2,1,1,4,1,4,0,0,0,0,0,0,0],"split_type":[0,0,0,0,0,0,0,0,0,0,0,0,0],"sum_hessian":[5.4E1,3E1,2.4E1,1.6E1,1.4E1,1.2E1,1.2E1,1.5E1,1E0,1E1,4E0,8E0,4E0],"tree_param":{"num_deleted":"0","num_feature":"8","num_nodes":"13","size_leaf_vector":"1"}},{"base_weights":[7.205672E-3,-1.0864225E-1,1.07780345E-1,-1.4252678E-1,4.3276153E-3,-0E0,1.7072149E-1,-1.7713549E-2,3.648897E-4,-1.0429808E-2,1.3768449E-2,2.210032E-3,2.6774868E-2],"categories":[],"categories_nodes":[],"categories_segments":[],"categories_sizes":[],"default_left":[0,0,0,0,0,0,0,0,0,0,0,0,0],"id":27,"left_children":[1,3,5,7,-1,9,11,-1,-1,-1,-1,-1,-1],"loss_changes":[7.336633E-1,1.947807E-1,3.104479E-1,2.1386343E-1,0E0,1.7373088E-1,2.096656E-1,0E0,0E0,0E0,0E0,0E0,0E0],"parents":[2147483647,0,0,1,1,2,2,3,3,5,5,6,6],"right_children":[2,4,6,8,-1,10,12,-1,-1,-1,-1,-1,-1],"split_conditions":[1E0,4E0,1E0,4E0,4.3276153E-3,3E0,2E0,-1.7713549E-2,3.648897E-4,-1.0429808E-2,1.3768449E-2,2.210032E-3,2.6774868E-2],"split_indices":[7,5,2,3,0,0,5,0,0,0,0,0,0],"split_type":[0,0,0,0,0,0,0,0,0,0,0,0,0],"sum_hessian":[6.1E1,2.6E1,3.5E1,2.4E1,2E0,1.1E1,2.4E1,2.2E1,2E0,8E0,3E0,1.2E1,1.2E1],"tree_param":{"num_deleted":"0","num_feature":"8","num_nodes":"13","size_leaf_vector":"1"}},{"base_weights":[5.980106E-4,-9.108674E-2,1.129728E-1,-0E0,-1.5807593E-1,-0E0,1.7839126E-1,-4.8864614E-3,5.3395773E-3,-2.2368375E-2,-6.978178E-4,-7.326481E-3,5.2805515E-3,-0E0,1.9420564E-2],"categories":[],"categories_nodes":[],"categories_segments":[],"categories_sizes":[],"default_left":[0,0,0,0,0,0,0,0,0,0,0,0,0,0,0],"id":28,"left_children":[1,3,5,7,9,11,13,-1,-1,-1,-1,-1,-1,-1,-1],"loss_changes":[7.11538E-1,2.5934818E-1,3.1076494E-1,4.044984E-2,1.01198435E-1,5.409555E-2,6.0093284E-2,0E0,0E0,0E0,0E0,0E0,0E0,0E0,0E0],"parents":[2147483647,0,0,1,1,2,2,3,3,4,4,5,5,6,6],"right_children":[2,4,6,8,10,12,14,-1,-1,-1,-1,-1,-1,-1,-1],"split_conditions":[2E0,1E0,1E0,1E0,2E0,4E0,1E0,-4.8864614E-3,5.3395773E-3,-2.2368375E-2,-6.978178E-4,-7.326481E-3,5.2805515E-3,-0E0,1.9420564E-2],"split_indices":[0,6,5,7,2,0,7,0,0,0,0,0,0,0,0],"split_type":[0,0,0,0,0,0,0,0,0,0,0,0,0,0,0],"sum_hessian":[6.6E1,3.4E1,3.2E1,1.3E1,2.1E1,1E1,2.2E1,4E0,9E0,1.2E1,9E0,7E0,3E0,2E0,2E1],"tree_param":{"num_deleted":"0","num_feature":"8","num_nodes":"15","size_leaf_vector":"1"}},{"base_weights":[2.0123392E-2,-6.274725E-2,1.4108875E-1,-1.2084674E-1,1.07731685E-1,-0E0,2.1050058E-2,-0E0,-1.6702646E-2,-0E0,1.7062945E-2,-2.1481921E-3,8.100143E-3],"categories":[],"categories_nodes":[],"categories_segments":[],"categories_sizes":[],"default_left":[0,0,0,0,0,0,0,0,0,0,0,0,0],"id":29,"left_children":[1,3,5,7,9,11,-1,-1,-1,-1,-1,-1,-1],"loss_changes":[7.196637E-1,3.9595658E-1,2.4471825E-1,1.6103053E-1,8.1837505E-2,3.6497936E-2,0E0,0E0,0E0,0E0,0E0,0E0,0E0],"parents":[2147483647,0,0,1,1,2,2,3,3,4,4,5,5],"right_children":[2,4,6,8,10,12,-1,-1,-1,-1,-1,-1,-1],"split_conditions":[2E0,2E0,1E0,1E0,1E0,1E0,2.1050058E-2,-0E0,-1.6702646E-2,-0E0,1.7062945E-2,-2.1481921E-3,8.100143E-3],"split_indices":[0,7,5,6,1,1,0,0,0,0,0,0,0],"split_type":[0,0,0,0,0,0,0,0,0,0,0,0,0],"sum_hessian":[6.6E1,3.7E1,2.9E1,3E1,7E0,1.1E1,1.8E1,9E0,2.1E1,2E0,5E0,7E0,4E0],"tree_param":{"num_deleted":"0","num_feature":"8","num_nodes":"13","size_leaf_vector":"1"}},{"base_weights":[2.2066124E-2,-4.584896E-3,2.5837088E-2,-4.156226E-2,1.4610805E-2,-8.493935E-3,-0E0],"categories":[],"categories_nodes":[],"categories_segments":[],"categories_sizes":[],"default_left":[0,0,0,0,0,0,0],"id":30,"left_children":[1,3,-1,5,-1,-1,-1],"loss_changes":[5.059433E-1,2.4912775E-1,0E0,1.0090594E-1,0E0,0E0,0E0],"parents":[2147483647,0,0,1,1,3,3],"right_children":[2,4,-1,6,-1,-1,-1],"split_conditions":[4E0,3E0,2.5837088E-2,1E0,1.4610805E-2,-8.493935E-3,-0E0],"split_indices":[4,7,0,7,0,0,0],"split_type":[0,0,0,0,0,0,0],"sum_hessian":[5.9E1,5.2E1,7E0,4.5E1,7E0,2.4E1,2.1E1],"tree_param":{"num_deleted":"0","num_feature":"8","num_nodes":"7","size_leaf_vector":"1"}},{"base_weights":[5.285665E-3,-6.096271E-2,1.236857E-1,-1.22468434E-1,3.3007845E-2,1.23614445E-2,1.7116606E-2,-1.5638229E-2,-0E0,1.2383673E-2,-0E0,-2.9094092E-4,1.1145053E-2],"categories":[],"categories_nodes":[],"categories_segments":[],"categories_sizes":[],"default_left":[0,0,0,0,0,0,0,0,0,0,0,0,0],"id":31,"left_children":[1,3,5,7,9,11,-1,-1,-1,-1,-1,-1,-1],"loss_changes":[5.409056E-1,2.7418202E-1,4.3549E-2,5.969298E-2,6.251395E-2,7.275292E-2,0E0,0E0,0E0,0E0,0E0,0E0,0E0],"parents":[2147483647,0,0,1,1,2,2,3,3,4,4,5,5],"right_children":[2,4,6,8,10,12,-1,-1,-1,-1,-1,-1,-1],"split_conditions":[2E0,2E0,2E0,2E0,1E0,3E0,1.7116606E-2,-1.5638229E-2,-0E0,1.2383673E-2,-0E0,-2.9094092E-4,1.1145053E-2],"split_indices":[0,5,3,3,6,5,0,0,0,0,0,0,0],"split_type":[0,0,0,0,0,0,0,0,0,0,0,0,0],"sum_hessian":[6.3E1,3.8E1,2.5E1,2.6E1,1.2E1,1.1E1,1.4E1,1.8E1,8E0,4E0,8E0,6E0,5E0],"tree_param":{"num_deleted":"0","num_feature":"8","num_nodes":"13","size_leaf_vector":"1"}},{"base_weights":[1.3390804E-2,-1.0706373E-1,7.372222E-2,-1.7520888E-2,6.7282827E-3,1.2212322E-2,1.6669521E-2,-4.0074536E-3,1.443633E-2],"categories":[],"categories_nodes":[],"categories_segments":[],"categories_sizes":[],"default_left":[0,0,0,0,0,0,0,0,0],"id":32,"left_children":[1,3,5,-1,-1,7,-1,-1,-1],"loss_changes":[4.5632258E-1,2.9148817E-1,1.7157343E-1,0E0,0E0,2.7904198E-1,0E0,0E0,0E0],"parents":[2147483647,0,0,1,1,2,2,5,5],"right_children":[2,4,6,-1,-1,8,-1,-1,-1],"split_conditions":[1E0,3E0,3E0,-1.7520888E-2,6.7282827E-3,2E0,1.6669521E-2,-4.0074536E-3,1.443633E-2],"split_indices":[3,5,0,0,0,7,0,0,0],"split_type":[0,0,0,0,0,0,0,0,0],"sum_hessian":[6.3E1,1.8E1,4.5E1,1.5E1,3E0,3.1E1,1.4E1,2E1,1.1E1],"tree_param":{"num_deleted":"0","num_feature":"8","num_nodes":"9","size_leaf_vector":"1"}},{"base_weights":[2.3598446E-2,-1.054013E-2,1.2106397E-2,4.344403E-2,-6.865654E-2,-8.006468E-4,1.4569518E-2,-8.27396E-3,-0E0],"categories":[],"categories_nodes":[],"categories_segments":[],"categories_sizes":[],"default_left":[0,0,0,0,0,0,0,0,0],"id":33,"left_children":[1,3,-1,5,7,-1,-1,-1,-1],"loss_changes":[2.7614203E-1,1.5990777E-1,0E0,1.752283E-1,5.072142E-2,0E0,0E0,0E0,0E0],"parents":[2147483647,0,0,1,1,3,3,4,4],"right_children":[2,4,-1,6,8,-1,-1,-1,-1],"split_conditions":[3E0,1E0,1.2106397E-2,2E0,4E0,-8.006468E-4,1.4569518E-2,-8.27396E-3,-0E0],"split_indices":[3,6,0,5,4,0,0,0,0],"split_type":[0,0,0,0,0,0,0,0,0],"sum_hessian":[6.5E1,4.5E1,2E1,1.9E1,2.6E1,1E1,9E0,2.5E1,1E0],"tree_param":{"num_deleted":"0","num_feature":"8","num_nodes":"9","size_leaf_vector":"1"}},{"base_weights":[-0E0,-2.9219177E-2,1.9460315E-1,-1.0494775E-1,4.3332234E-2,-0E0,2.1429542E-2,-1.9090833E-2,-3.3796683E-3,-4.151543E-3,1.0858946E-2],"categories":[],"categories_nodes":[],"categories_segments":[],"categories_sizes":[],"default_left":[0,0,0,0,0,0,0,0,0,0,0],"id":34,"left_children":[1,3,5,7,9,-1,-1,-1,-1,-1,-1],"loss_changes":[3.558962E-1,3.7599677E-1,1.8494606E-2,8.914578E-2,1.9861591E-1,0E0,0E0,0E0,0E0,0E0,0E0],"parents":[2147483647,0,0,1,1,2,2,3,3,4,4],"right_children":[2,4,6,8,10,-1,-1,-1,-1,-1,-1],"split_conditions":[4E0,1E0,1E0,1E0,1E0,-0E0,2.1429542E-2,-1.9090833E-2,-3.3796683E-3,-4.151543E-3,1.0858946E-2],"split_indices":[4,1,0,2,5,0,0,0,0,0,0],"split_type":[0,0,0,0,0,0,0,0,0,0,0],"sum_hessian":[6.8E1,6.1E1,7E0,3.3E1,2.8E1,1E0,6E0,1.1E1,2.2E1,9E0,1.9E1],"tree_param":{"num_deleted":"0","num_feature":"8","num_nodes":"11","size_leaf_vector":"1"}},{"base_weights":[-0E0,-9.672352E-2,6.307269E-2,-1.614036E-1,3.9705787E-2,-0E0,1.15305275E-1,-1.7634256E-2,-0E0,-0E0,5.2261734E-3,-0E0,4.29899E-3,-0E0,1.4902094E-2],"categories":[],"categories_nodes":[],"categories_segments":[],"categories_sizes":[],"default_left":[0,0,0,0,0,0,0,0,0,0,0,0,0,0,0],"id":35,"left_children":[1,3,5,7,9,11,13,-1,-1,-1,-1,-1,-1,-1,-1],"loss_changes":[4.1570157E-1,3.0551252E-1,1.0280138E-1,7.486051E-2,2.6205983E-3,9.240656E-3,2.2788048E-2,0E0,0E0,0E0,0E0,0E0,0E0,0E0,0E0],"parents":[2147483647,0,0,1,1,2,2,3,3,4,4,5,5,6,6],"right_children":[2,4,6,8,10,12,14,-1,-1,-1,-1,-1,-1,-1,-1],"split_conditions":[1E0,4E0,2E0,3E0,1E0,4E0,1E0,-1.7634256E-2,-0E0,-0E0,5.2261734E-3,-0E0,4.29899E-3,-0E0,1.4902094E-2],"split_indices":[2,1,5,7,4,2,7,0,0,0,0,0,0,0,0],"split_type":[0,0,0,0,0,0,0,0,0,0,0,0,0,0,0],"sum_hessian":[6.6E1,2.6E1,4E1,2E1,6E0,2.1E1,1.9E1,1.9E1,1E0,2E0,4E0,1.7E1,4E0,7E0,1.2E1],"tree_param":{"num_deleted":"0","num_feature":"8","num_nodes":"15","size_leaf_vector":"1"}},{"base_weights":[3.904805E-3,-7.1414255E-2,5.8256846E-2,-1.5992066E-1,-0E0,-0E0,1.04999356E-1,-1.9434555E-2,-0E0,5.6013395E-3,-1.8163072E-3,-2.1356323E-3,7.881167E-3,-0E0,1.2209776E-2],"categories":[],"categories_nodes":[],"categories_segments":[],"categories_sizes":[],"default_left":[0,0,0,0,0,0,0,0,0,0,0,0,0,0,0],"id":36,"left_children":[1,3,5,7,9,11,13,-1,-1,-1,-1,-1,-1,-1,-1],"loss_changes":[2.554876E-1,1.6402087E-1,1.1442363E-1,9.638107E-2,1.8656576E-2,3.2142602E-2,1.4769644E-2,0E0,0E0,0E0,0E0,0E0,0E0,0E0,0E0],"parents":[2147483647,0,0,1,1,2,2,3,3,4,4,5,5,6,6],"right_children":[2,4,6,8,10,12,14,-1,-1,-1,-1,-1,-1,-1,-1],"split_conditions":[1E0,1E0,1E0,4E0,1E0,4E0,1E0,-1.9434555E-2,-0E0,5.6013395E-3,-1.8163072E-3,-2.1356323E-3,7.881167E-3,-0E0,1.2209776E-2],"split_indices":[2,5,1,0,6,0,5,0,0,0,0,0,0,0,0],"split_type":[0,0,0,0,0,0,0,0,0,0,0,0,0,0,0],"sum_hessian":[6.2E1,2.2E1,4E1,1E1,1.2E1,1.8E1,2.2E1,9E0,1E0,4E0,8E0,1.5E1,3E0,5E0,1.7E1],"tree_param":{"num_deleted":"0","num_feature":"8","num_nodes":"15","size_leaf_vector":"1"}},{"base_weights":[2.6992334E-2,-0E0,1.4694914E-2,-5.926664E-2,5.6454763E-2,-8.051708E-3,-0E0,-0E0,9.898904E-3],"categories":[],"categories_nodes":[],"categories_segments":[],"categories_sizes":[],"default_left":[0,0,0,0,0,0,0,0,0],"id":37,"left_children":[1,3,-1,5,7,-1,-1,-1,-1],"loss_changes":[2.7728125E-1,1.7198059E-1,0E0,6.669452E-2,3.7670024E-2,0E0,0E0,0E0,0E0],"parents":[2147483647,0,0,1,1,3,3,4,4],"right_children":[2,4,-1,6,8,-1,-1,-1,-1],"split_conditions":[3E0,1E0,1.4694914E-2,4E0,2E0,-8.051708E-3,-0E0,-0E0,9.898904E-3],"split_indices":[4,1,0,2,7,0,0,0,0],"split_type":[0,0,0,0,0,0,0,0,0],"sum_hessian":[6.3E1,4.9E1,1.4E1,2.8E1,2.1E1,2.5E1,3E0,1.1E1,1E1],"tree_param":{"num_deleted":"0","num_feature":"8","num_nodes":"9","size_leaf_vector":"1"}},{"base_weights":[-0E0,-3.3271357E-2,8.972752E-2,-9.324132E-2,5.6306575E-3,-0E0,1.3588222E-2,-1.246541E-2,1.5328526E-4,7.1508656E-3,-1.5524098E-3,-0E0,3.0200507E-3],"categories":[],"categories_nodes":[],"categories_segments":[],"categories_sizes":[],"default_left":[0,0,0,0,0,0,0,0,0,0,0,0,0],"id":38,"left_children":[1,3,5,7,9,11,-1,-1,-1,-1,-1,-1,-1],"loss_changes":[1.8195166E-1,1.5631205E-1,1.8895358E-2,1.3320258E-1,6.394321E-2,4.5603523E-3,0E0,0E0,0E0,0E0,0E0,0E0,0E0],"parents":[2147483647,0,0,1,1,2,2,3,3,4,4,5,5],"right_children":[2,4,6,8,10,12,-1,-1,-1,-1,-1,-1,-1],"split_conditions":[3E0,1E0,3E0,4E0,1E0,4E0,1.3588222E-2,-1.246541E-2,1.5328526E-4,7.1508656E-3,-1.5524098E-3,-0E0,3.0200507E-3],"split_indices":[4,7,2,3,6,4,0,0,0,0,0,0,0],"split_type":[0,0,0,0,0,0,0,0,0,0,0,0,0],"sum_hessian":[6.2E1,4.7E1,1.5E1,2.3E1,2.4E1,8E0,7E0,2.1E1,2E0,1.1E1,1.3E1,4E0,4E0],"tree_param":{"num_deleted":"0","num_feature":"8","num_nodes":"13","size_leaf_vector":"1"}},{"base_weights":[-0E0,8.842732E-2,-5.98602E-2,-0E0,1.3695051E-2,-1.08381286E-1,5.755238E-4,-1.1993338E-2,-0E0,-0E0,6.2776147E-3],"categories":[],"categories_nodes":[],"categories_segments":[],"categories_sizes":[],"default_left":[0,0,0,0,0,0,0,0,0,0,0],"id":39,"left_children":[1,3,5,-1,-1,7,9,-1,-1,-1,-1],"loss_changes":[3.531475E-1,1.2335773E-1,1.8299118E-1,0E0,0E0,1.8951833E-2,1.9698925E-2,0E0,0E0,0E0,0E0],"parents":[2147483647,0,0,1,1,2,2,5,5,6,6],"right_children":[2,4,6,-1,-1,8,10,-1,-1,-1,-1],"split_conditions":[1E0,1E0,2E0,-0E0,1.3695051E-2,3E0,4E0,-1.1993338E-2,-0E0,-0E0,6.2776147E-3],"split_indices":[6,1,3,0,0,2,3,0,0,0,0],"split_type":[0,0,0,0,0,0,0,0,0,0,0],"sum_hessian":[6.7E1,2.4E1,4.3E1,8E0,1.6E1,2.8E1,1.5E1,2.4E1,4E0,1.1E1,4E0],"tree_param":{"num_deleted":"0","num_feature":"8","num_nodes":"11","size_leaf_vector":"1"}},{"base_weights":[-2.635588E-3,-6.696941E-2,2.3816345E-2,-9.984667E-2,-0E0,-9.178972E-3,5.8498967E-2,-0E0,-1.5816765E-2,-0E0,-4.014878E-3,-0E0,1.1217335E-2],"categories":[],"categories_nodes":[],"categories_segments":[],"categories_sizes":[],"default_left":[0,0,0,0,0,0,0,0,0,0,0,0,0],"id":40,"left_children":[1,3,5,7,-1,9,11,-1,-1,-1,-1,-1,-1],"loss_changes":[1.3548726E-1,8.7264605E-2,7.326025E-2,1.00816876E-1,0E0,1.9691216E-2,9.292329E-2,0E0,0E0,0E0,0E0,0E0,0E0],"parents":[2147483647,0,0,1,1,2,2,3,3,5,5,6,6],"right_children":[2,4,6,8,-1,10,12,-1,-1,-1,-1,-1,-1],"split_conditions":[1E0,3E0,1E0,1E0,-0E0,1E0,2E0,-0E0,-1.5816765E-2,-0E0,-4.014878E-3,-0E0,1.1217335E-2],"split_indices":[2,0,7,6,0,6,5,0,0,0,0,0,0],"split_type":[0,0,0,0,0,0,0,0,0,0,0,0,0],"sum_hessian":[6.5E1,2.4E1,4.1E1,1.9E1,5E0,1.4E1,2.7E1,8E0,1.1E1,2E0,1.2E1,1.3E1,1.4E1],"tree_param":{"num_deleted":"0","num_feature":"8","num_nodes":"13","size_leaf_vector":"1"}},{"base_weights":[4.7091586E-3,-1.4052393E-2,9.312209E-2,-4.190856E-2,8.764296E-3,-0E0,1.2507285E-2,-1.0883608E-2,-0E0,-0E0,2.9137672E-3],"categories":[],"categories_nodes":[],"categories_segments":[],"categories_sizes":[],"default_left":[0,0,0,0,0,0,0,0,0,0,0],"id":41,"left_children":[1,3,5,7,-1,9,-1,-1,-1,-1,-1],"loss_changes":[1.470043E-1,1.1961507E-1,1.7684609E-2,1.2584788E-1,0E0,3.3960154E-3,0E0,0E0,0E0,0E0,0E0],"parents":[2147483647,0,0,1,1,2,2,3,3,5,5],"right_children":[2,4,6,8,-1,10,-1,-1,-1,-1,-1],"split_conditions":[3E0,4E0,1E0,1E0,8.764296E-3,4E0,1.2507285E-2,-1.0883608E-2,-0E0,-0E0,2.9137672E-3],"split_indices":[4,1,1,2,0,4,0,0,0,0,0],"split_type":[0,0,0,0,0,0,0,0,0,0,0],"sum_hessian":[6.3E1,4.8E1,1.5E1,4.2E1,6E0,6E0,9E0,1.6E1,2.6E1,3E0,3E0],"tree_param":{"num_deleted":"0","num_feature":"8","num_nodes":"11","size_leaf_vector":"1"}},{"base_weights":[1.567205E-2,8.1605285E-2,-1.37795275E-2,-0E0,1.2300809E-2,-4.5439333E-2,1.1097246E-2,-0E0,8.8121893E-4,-6.942026E-3,-0E0],"categories":[],"categories_nodes":[],"categories_segments":[],"categories_sizes":[],"default_left":[0,0,0,0,0,0,0,0,0,0,0],"id":42,"left_children":[1,3,5,7,-1,9,-1,-1,-1,-1,-1],"loss_changes":[1.7096601E-1,7.742241E-2,1.4605938E-1,6.2123744E-4,0E0,7.3688924E-2,0E0,0E0,0E0,0E0,0E0],"parents":[2147483647,0,0,1,1,2,2,3,3,5,5],"right_children":[2,4,6,8,-1,10,-1,-1,-1,-1,-1],"split_conditions":[1E0,1E0,4E0,1E0,1.2300809E-2,3E0,1.1097246E-2,-0E0,8.8121893E-4,-6.942026E-3,-0E0],"split_indices":[6,1,3,0,0,5,0,0,0,0,0],"split_type":[0,0,0,0,0,0,0,0,0,0,0],"sum_hessian":[6.9E1,2.6E1,4.3E1,1E1,1.6E1,3.8E1,5E0,3E0,7E0,3.1E1,7E0],"tree_param":{"num_deleted":"0","num_feature":"8","num_nodes":"11","size_leaf_vector":"1"}},{"base_weights":[2.2352172E-2,-0E0,8.248461E-2,-3.4144137E-2,3.3937473E-2,-0E0,1.2410465E-1,-5.6360057E-3,-0E0,-0E0,6.9635003E-3,1.4416042E-2,-0E0],"categories":[],"categories_nodes":[],"categories_segments":[],"categories_sizes":[],"default_left":[0,0,0,0,0,0,0,0,0,0,0,0,0],"id":43,"left_children":[1,3,5,7,9,-1,11,-1,-1,-1,-1,-1,-1],"loss_changes":[1.0160047E-1,5.9119247E-2,1.2575918E-1,2.2522554E-2,4.9942493E-2,0E0,2.9117763E-2,0E0,0E0,0E0,0E0,0E0,0E0],"parents":[2147483647,0,0,1,1,2,2,3,3,4,4,6,6],"right_children":[2,4,6,8,10,-1,12,-1,-1,-1,-1,-1,-1],"split_conditions":[3E0,1E0,1E0,1E0,1E0,-0E0,3E0,-5.6360057E-3,-0E0,-0E0,6.9635003E-3,1.4416042E-2,-0E0],"split_indices":[0,1,3,0,5,0,7,0,0,0,0,0,0],"split_type":[0,0,0,0,0,0,0,0,0,0,0,0,0],"sum_hessian":[6.8E1,4.9E1,1.9E1,2.6E1,2.3E1,3E0,1.6E1,1.6E1,1E1,8E0,1.5E1,1.3E1,3E0],"tree_param":{"num_deleted":"0","num_feature":"8","num_nodes":"13","size_leaf_vector":"1"}},{"base_weights":[5.8670146E-3,-2.1259075E-2,1.0992932E-1,-1.04540326E-1,-0E0,1.1594816E-2,-0E0,-1.442226E-2,-0E0,-1.531791E-3,6.7526847E-3],"categories":[],"categories_nodes":[],"categories_segments":[],"categories_sizes":[],"default_left":[0,0,0,0,0,0,0,0,0,0,0],"id":44,"left_children":[1,3,5,7,9,-1,-1,-1,-1,-1,-1],"loss_changes":[2.2450875E-1,1.2083125E-1,9.667844E-3,2.4328455E-2,5.602459E-2,0E0,0E0,0E0,0E0,0E0,0E0],"parents":[2147483647,0,0,1,1,2,2,3,3,4,4],"right_children":[2,4,6,8,10,-1,-1,-1,-1,-1,-1],"split_conditions":[3E0,1E0,4E0,1E0,3E0,1.1594816E-2,-0E0,-1.442226E-2,-0E0,-1.531791E-3,6.7526847E-3],"split_indices":[2,3,1,2,0,0,0,0,0,0,0],"split_type":[0,0,0,0,0,0,0,0,0,0,0],"sum_hessian":[6.2E1,4.6E1,1.6E1,1.2E1,3.4E1,1.5E1,1E0,7E0,5E0,2.4E1,1E1],"tree_param":{"num_deleted":"0","num_feature":"8","num_nodes":"11","size_leaf_vector":"1"}},{"base_weights":[3.6726738E-4,-2.3196198E-2,4.7659714E-2,2.1289365E-2,-6.540084E-2,7.38182E-3,1.0176427E-2,-0E0,8.969839E-3,-8.607566E-3,-0E0,-0E0,5.9110033E-3],"categories":[],"categories_nodes":[],"categories_segments":[],"categories_sizes":[],"default_left":[0,0,0,0,0,0,0,0,0,0,0,0,0],"id":45,"left_children":[1,3,5,7,9,11,-1,-1,-1,-1,-1,-1,-1],"loss_changes":[8.577158E-2,9.291548E-2,7.873058E-3,5.8474325E-2,4.8657663E-2,2.6698666E-2,0E0,0E0,0E0,0E0,0E0,0E0,0E0],"parents":[2147483647,0,0,1,1,2,2,3,3,4,4,5,5],"right_children":[2,4,6,8,10,12,-1,-1,-1,-1,-1,-1,-1],"split_conditions":[2E0,1E0,4E0,2E0,3E0,4E0,1.0176427E-2,-0E0,8.969839E-3,-8.607566E-3,-0E0,-0E0,5.9110033E-3],"split_indices":[3,6,3,5,5,1,0,0,0,0,0,0,0],"split_type":[0,0,0,0,0,0,0,0,0,0,0,0,0],"sum_hessian":[6.4E1,3.6E1,2.8E1,1.2E1,2.4E1,2.2E1,6E0,5E0,7E0,2E1,4E0,1.5E1,7E0],"tree_param":{"num_deleted":"0","num_feature":"8","num_nodes":"13","size_leaf_vector":"1"}},{"base_weights":[-0E0,-1.0026297E-2,1.02543674E-1,1.52250305E-2,-3.3259694E-2,1.3514416E-2,-0E0,-0E0,7.310103E-3,-4.9813637E-3,9.1345666E-4],"categories":[],"categories_nodes":[],"categories_segments":[],"categories_sizes":[],"default_left":[0,0,0,0,0,0,0,0,0,0,0],"id":46,"left_children":[1,3,5,7,9,-1,-1,-1,-1,-1,-1],"loss_changes":[1.012716E-1,4.8244208E-2,3.3210784E-2,3.765045E-2,5.237521E-2,0E0,0E0,0E0,0E0,0E0,0E0],"parents":[2147483647,0,0,1,1,2,2,3,3,4,4],"right_children":[2,4,6,8,10,-1,-1,-1,-1,-1,-1],"split_conditions":[4E0,1E0,3E0,2E0,4E0,1.3514416E-2,-0E0,-0E0,7.310103E-3,-4.9813637E-3,9.1345666E-4],"split_indices":[4,6,7,5,3,0,0,0,0,0,0],"split_type":[0,0,0,0,0,0,0,0,0,0,0],"sum_hessian":[7.3E1,6.5E1,8E0,2.1E1,4.4E1,6E0,2E0,1.4E1,7E0,4E1,4E0],"tree_param":{"num_deleted":"0","num_feature":"8","num_nodes":"11","size_leaf_vector":"1"}},{"base_weights":[-0E0,-4.3287117E-2,4.5321725E-2,-0E0,-7.2394066E-2,-0E0,6.7921313E-3,-0E0,2.402632E-3,-8.927101E-3,-0E0,-0E0,5.878568E-4],"categories":[],"categories_nodes":[],"categories_segments":[],"categories_sizes":[],"default_left":[0,0,0,0,0,0,0,0,0,0,0,0,0],"id":47,"left_children":[1,3,5,7,9,11,-1,-1,-1,-1,-1,-1,-1],"loss_changes":[1.386268E-1,6.655334E-2,2.397696E-2,4.618112E-3,4.9759194E-2,2.0734535E-4,0E0,0E0,0E0,0E0,0E0,0E0,0E0],"parents":[2147483647,0,0,1,1,2,2,3,3,4,4,5,5],"right_children":[2,4,6,8,10,12,-1,-1,-1,-1,-1,-1,-1],"split_conditions":[2E0,1E0,3E0,2E0,4E0,2E0,6.7921313E-3,-0E0,2.402632E-3,-8.927101E-3,-0E0,-0E0,5.878568E-4],"split_indices":[3,6,3,5,2,7,0,0,0,0,0,0,0],"split_type":[0,0,0,0,0,0,0,0,0,0,0,0,0],"sum_hessian":[6.9E1,3.9E1,3E1,1.3E1,2.6E1,1.2E1,1.8E1,6E0,7E0,2.3E1,3E0,7E0,5E0],"tree_param":{"num_deleted":"0","num_feature":"8","num_nodes":"13","size_leaf_vector":"1"}},{"base_weights":[5.453534E-3,-3.894085E-2,4.241981E-3,-1.2994438E-1,-0E0,-1.4536964E-2,-0E0,-0E0,2.9503396E-3],"categories":[],"categories_nodes":[],"categories_segments":[],"categories_sizes":[],"default_left":[0,0,0,0,0,0,0,0,0],"id":48,"left_children":[1,3,-1,5,7,-1,-1,-1,-1],"loss_changes":[1.0678033E-1,1.3397846E-1,0E0,2.1335572E-2,5.222702E-3,0E0,0E0,0E0,0E0],"parents":[2147483647,0,0,1,1,3,3,4,4],"right_children":[2,4,-1,6,8,-1,-1,-1,-1],"split_conditions":[1E0,1E0,4.241981E-3,3E0,2E0,-1.4536964E-2,-0E0,-0E0,2.9503396E-3],"split_indices":[2,0,0,3,3,0,0,0,0],"split_type":[0,0,0,0,0,0,0,0,0],"sum_hessian":[6.2E1,2.2E1,4E1,9E0,1.3E1,8E0,1E0,8E0,5E0],"tree_param":{"num_deleted":"0","num_feature":"8","num_nodes":"9","size_leaf_vector":"1"}},{"base_weights":[-0E0,-3.2958116E-2,5.6926206E-2,-0E0,-6.2211875E-2,-0E0,7.51489E-3,-1.67119E-3,5.0858036E-3,-7.2768787E-3,-0E0,-0E0,3.8289248E-3],"categories":[],"categories_nodes":[],"categories_segments":[],"categories_sizes":[],"default_left":[0,0,0,0,0,0,0,0,0,0,0,0,0],"id":49,"left_children":[1,3,5,7,9,11,-1,-1,-1,-1,-1,-1,-1],"loss_changes":[1.2660055E-1,5.3783074E-2,2.861701E-3,2.2368044E-2,2.8904177E-2,8.796399E-3,0E0,0E0,0E0,0E0,0E0,0E0,0E0],"parents":[2147483647,0,0,1,1,2,2,3,3,4,4,5,5],"right_children":[2,4,6,8,10,12,-1,-1,-1,-1,-1,-1,-1],"split_conditions":[2E0,1E0,3E0,2E0,4E0,2E0,7.51489E-3,-1.67119E-3,5.0858036E-3,-7.2768787E-3,-0E0,-0E0,3.8289248E-3],"split_indices":[3,6,3,5,4,7,0,0,0,0,0,0,0],"split_type":[0,0,0,0,0,0,0,0,0,0,0,0,0],"sum_hessian":[6.1E1,3.5E1,2.6E1,1.2E1,2.3E1,1.1E1,1.5E1,5E0,7E0,2.2E1,1E0,6E0,5E0],"tree_param":{"num_deleted":"0","num_feature":"8","num_nodes":"13","size_leaf_vector":"1"}}]},"name":"gbtree"},"learner_model_param":{"base_score":"1.4625E0","boost_from_average":"1","num_class":"0","num_feature":"8","num_target":"1"},"objective":{"name":"reg:squarederror","reg_loss_param":{"scale_pos_weight":"1"}}},"version":[3,0,5]}